booster[0]
0:[f34<0.5] yes=1,no=2,missing=1
	1:[f35<0.5] yes=3,no=4,missing=3
		3:[f29<0.5] yes=5,no=6,missing=5
			5:[f0<0.5] yes=9,no=10,missing=9
				9:leaf=-0.00549102435
				10:leaf=0.0333614163
			6:leaf=-0.0534124635
		4:[f0<0.5] yes=7,no=8,missing=7
			7:leaf=0.0312056746
			8:leaf=0.100000001
	2:leaf=0.100000001
booster[1]
0:[f43<0.5] yes=1,no=2,missing=1
	1:leaf=-0.0538203493
	2:leaf=0.100000001
booster[2]
0:[f73<0.5] yes=1,no=2,missing=1
	1:[f34<0.5] yes=3,no=4,missing=3
		3:[f14<0.5] yes=7,no=8,missing=7
			7:[f30<0.5] yes=11,no=12,missing=11
				11:leaf=0.0734331682
				12:leaf=0.100000001
			8:leaf=-0.0460606068
		4:leaf=-0.0531590395
	2:[f68<0.5] yes=5,no=6,missing=5
		5:[f57<0.5] yes=9,no=10,missing=9
			9:leaf=-0.0326180272
			10:leaf=-0.0160000008
		6:leaf=-0.0513111316
booster[3]
0:[f68<0.5] yes=1,no=2,missing=1
	1:[f75<0.5] yes=3,no=4,missing=3
		3:[f73<0.5] yes=5,no=6,missing=5
			5:[f0<0.5] yes=7,no=8,missing=7
				7:leaf=-0.0467665941
				8:leaf=-0.0354521051
			6:[f0<0.5] yes=9,no=10,missing=9
				9:leaf=-0.0351999998
				10:leaf=0.0165289249
		4:leaf=0.0868085101
	2:leaf=0.100000001
booster[4]
0:[f30<0.5] yes=1,no=2,missing=1
	1:[f73<0.5] yes=3,no=4,missing=3
		3:[f4<0.5] yes=5,no=6,missing=5
			5:[f34<0.5] yes=7,no=8,missing=7
				7:leaf=0.100000001
				8:leaf=-0.043733336
			6:leaf=-0.0475095771
		4:leaf=-0.0480000004
	2:leaf=-0.0539096296
booster[5]
0:[f29<0.5] yes=1,no=2,missing=1
	1:[f73<0.5] yes=3,no=4,missing=3
		3:[f38<0.5] yes=5,no=6,missing=5
			5:[f30<0.5] yes=9,no=10,missing=9
				9:leaf=-0.0331544429
				10:leaf=-0.00379506662
			6:leaf=-0.0550790094
		4:[f38<0.5] yes=7,no=8,missing=7
			7:[f57<0.5] yes=11,no=12,missing=11
				11:leaf=0.100000001
				12:leaf=0.00207253895
			8:leaf=-0.0460606068
	2:leaf=-0.0558002964
booster[6]
0:[f10<0.5] yes=1,no=2,missing=1
	1:[f4<0.5] yes=3,no=4,missing=3
		3:[f0<0.5] yes=5,no=6,missing=5
			5:leaf=-0.0461229421
			6:leaf=-0.0562737659
		4:[f0<0.5] yes=7,no=8,missing=7
			7:leaf=0.00615384616
			8:leaf=-0.0497992001
	2:leaf=0.100000001
booster[7]
0:leaf=-0.0527812801
booster[8]
0:[f34<0.5] yes=1,no=2,missing=1
	1:[f4<0.5] yes=3,no=4,missing=3
		3:[f68<0.5] yes=5,no=6,missing=5
			5:[f11<0.5] yes=9,no=10,missing=9
				9:leaf=0.0157170445
				10:leaf=-0.0501714014
			6:leaf=-0.0556623228
		4:[f0<0.5] yes=7,no=8,missing=7
			7:leaf=0.0284497887
			8:leaf=0.100000001
	2:leaf=0.100000001
booster[9]
0:[f43<0.5] yes=1,no=2,missing=1
	1:leaf=-0.0534337163
	2:leaf=0.100000001
booster[10]
0:[f29<0.5] yes=1,no=2,missing=1
	1:[f34<0.5] yes=3,no=4,missing=3
		3:[f0<0.5] yes=5,no=6,missing=5
			5:[f4<0.5] yes=7,no=8,missing=7
				7:leaf=0.00596751785
				8:leaf=0.100000001
			6:[f4<0.5] yes=9,no=10,missing=9
				9:leaf=0.100000001
				10:leaf=-0.0506826416
		4:leaf=-0.052939374
	2:leaf=-0.0556504205
booster[11]
0:[f29<0.5] yes=1,no=2,missing=1
	1:[f75<0.5] yes=3,no=4,missing=3
		3:[f0<0.5] yes=5,no=6,missing=5
			5:[f35<0.5] yes=7,no=8,missing=7
				7:leaf=-0.0515204929
				8:leaf=-0.0207522679
			6:[f35<0.5] yes=9,no=10,missing=9
				9:leaf=-0.023375826
				10:leaf=-0.0494609103
		4:leaf=0.077440612
	2:leaf=0.100000001
booster[12]
0:[f30<0.5] yes=1,no=2,missing=1
	1:[f73<0.5] yes=3,no=4,missing=3
		3:[f5<0.5] yes=5,no=6,missing=5
			5:[f7<0.5] yes=7,no=8,missing=7
				7:leaf=0.100000001
				8:leaf=-0.0423470102
			6:leaf=-0.0470480137
		4:leaf=-0.047634799
	2:leaf=-0.0535512865
booster[13]
0:[f62<0.5] yes=1,no=2,missing=1
	1:[f81<0.5] yes=3,no=4,missing=3
		3:[f29<0.5] yes=5,no=6,missing=5
			5:[f73<0.5] yes=7,no=8,missing=7
				7:leaf=-0.0448363796
				8:leaf=0.0258148443
			6:leaf=-0.0555180125
		4:leaf=0.0192615688
	2:leaf=0.100000001
booster[14]
0:[f10<0.5] yes=1,no=2,missing=1
	1:[f5<0.5] yes=3,no=4,missing=3
		3:[f0<0.5] yes=5,no=6,missing=5
			5:leaf=-0.0455717035
			6:leaf=-0.0559726134
		4:[f0<0.5] yes=7,no=8,missing=7
			7:leaf=0.0047218143
			8:leaf=-0.0493352972
	2:leaf=0.100000001
booster[15]
0:[f81<0.5] yes=1,no=2,missing=1
	1:leaf=-0.053421706
	2:leaf=-0.0229119845
booster[16]
0:[f34<0.5] yes=1,no=2,missing=1
	1:[f4<0.5] yes=3,no=4,missing=3
		3:[f68<0.5] yes=5,no=6,missing=5
			5:[f0<0.5] yes=9,no=10,missing=9
				9:leaf=-0.00543838134
				10:leaf=0.029974902
			6:leaf=-0.0554333739
		4:[f0<0.5] yes=7,no=8,missing=7
			7:leaf=0.0257994719
			8:leaf=0.100000001
	2:leaf=0.100000001
booster[17]
0:[f43<0.5] yes=1,no=2,missing=1
	1:leaf=-0.053059645
	2:leaf=0.100000001
booster[18]
0:[f73<0.5] yes=1,no=2,missing=1
	1:[f34<0.5] yes=3,no=4,missing=3
		3:[f0<0.5] yes=7,no=8,missing=7
			7:[f4<0.5] yes=9,no=10,missing=9
				9:leaf=0.0125879813
				10:leaf=0.100000001
			8:[f4<0.5] yes=11,no=12,missing=11
				11:leaf=0.100000001
				12:leaf=-0.0491932631
		4:leaf=-0.0525773838
	2:[f29<0.5] yes=5,no=6,missing=5
		5:leaf=-0.0238871556
		6:leaf=-0.0553845577
booster[19]
0:[f29<0.5] yes=1,no=2,missing=1
	1:[f75<0.5] yes=3,no=4,missing=3
		3:[f0<0.5] yes=5,no=6,missing=5
			5:[f4<0.5] yes=7,no=8,missing=7
				7:leaf=-0.0510833748
				8:leaf=-0.0198084638
			6:[f73<0.5] yes=9,no=10,missing=9
				9:leaf=-0.0343705006
				10:leaf=0.000638144382
		4:leaf=0.0694353953
	2:leaf=0.100000001
booster[20]
0:[f30<0.5] yes=1,no=2,missing=1
	1:[f73<0.5] yes=3,no=4,missing=3
		3:[f4<0.5] yes=5,no=6,missing=5
			5:[f34<0.5] yes=7,no=8,missing=7
				7:leaf=0.100000001
				8:leaf=-0.0433457159
			6:leaf=-0.0464470498
		4:leaf=-0.0472247191
	2:leaf=-0.0532143712
booster[21]
0:[f62<0.5] yes=1,no=2,missing=1
	1:[f81<0.5] yes=3,no=4,missing=3
		3:[f29<0.5] yes=5,no=6,missing=5
			5:[f73<0.5] yes=7,no=8,missing=7
				7:leaf=-0.0442832187
				8:leaf=0.0229805596
			6:leaf=-0.0552934781
		4:leaf=0.0174925029
	2:leaf=0.100000001
booster[22]
0:[f10<0.5] yes=1,no=2,missing=1
	1:[f4<0.5] yes=3,no=4,missing=3
		3:[f1<0.5] yes=5,no=6,missing=5
			5:leaf=-0.0450514518
			6:leaf=-0.0556829385
		4:[f1<0.5] yes=7,no=8,missing=7
			7:leaf=0.00405209931
			8:leaf=-0.0490422957
	2:leaf=0.100000001
booster[23]
0:[f81<0.5] yes=1,no=2,missing=1
	1:leaf=-0.0530443788
	2:leaf=-0.0224205572
booster[24]
0:[f34<0.5] yes=1,no=2,missing=1
	1:[f4<0.5] yes=3,no=4,missing=3
		3:[f68<0.5] yes=5,no=6,missing=5
			5:[f41<0.5] yes=9,no=10,missing=9
				9:leaf=0.0126893772
				10:leaf=-0.0500775576
			6:leaf=-0.0551873222
		4:[f0<0.5] yes=7,no=8,missing=7
			7:leaf=0.0234401487
			8:leaf=0.100000001
	2:leaf=0.100000001
booster[25]
0:[f43<0.5] yes=1,no=2,missing=1
	1:leaf=-0.0526759215
	2:leaf=0.100000001
booster[26]
0:[f73<0.5] yes=1,no=2,missing=1
	1:[f34<0.5] yes=3,no=4,missing=3
		3:[f0<0.5] yes=7,no=8,missing=7
			7:[f5<0.5] yes=9,no=10,missing=9
				9:leaf=0.0112182526
				10:leaf=0.100000001
			8:[f5<0.5] yes=11,no=12,missing=11
				11:leaf=0.100000001
				12:leaf=-0.0488193557
		4:leaf=-0.052266743
	2:[f68<0.5] yes=5,no=6,missing=5
		5:leaf=-0.0297322851
		6:leaf=-0.0504634269
booster[27]
0:[f29<0.5] yes=1,no=2,missing=1
	1:[f75<0.5] yes=3,no=4,missing=3
		3:[f0<0.5] yes=5,no=6,missing=5
			5:[f4<0.5] yes=7,no=8,missing=7
				7:leaf=-0.0506242886
				8:leaf=-0.0193012729
			6:[f73<0.5] yes=9,no=10,missing=9
				9:leaf=-0.0338315107
				10:leaf=-0.000174839894
		4:leaf=0.0626744181
	2:leaf=0.100000001
booster[28]
0:[f30<0.5] yes=1,no=2,missing=1
	1:[f73<0.5] yes=3,no=4,missing=3
		3:[f4<0.5] yes=5,no=6,missing=5
			5:[f34<0.5] yes=7,no=8,missing=7
				7:leaf=0.100000001
				8:leaf=-0.0429746248
			6:leaf=-0.0458175056
		4:leaf=-0.0468372926
	2:leaf=-0.0528534129
booster[29]
0:[f62<0.5] yes=1,no=2,missing=1
	1:[f29<0.5] yes=3,no=4,missing=3
		3:[f38<0.5] yes=5,no=6,missing=5
			5:[f0<0.5] yes=7,no=8,missing=7
				7:leaf=-0.0334470533
				8:leaf=-0.00187006255
			6:leaf=-0.054630544
		4:leaf=-0.0551865213
	2:leaf=0.100000001
booster[30]
0:[f11<0.5] yes=1,no=2,missing=1
	1:[f4<0.5] yes=3,no=4,missing=3
		3:[f1<0.5] yes=5,no=6,missing=5
			5:leaf=-0.0445243642
			6:leaf=-0.0553874634
		4:[f1<0.5] yes=7,no=8,missing=7
			7:leaf=0.0034586289
			8:leaf=-0.0486734509
	2:leaf=0.100000001
booster[31]
0:[f81<0.5] yes=1,no=2,missing=1
	1:leaf=-0.0526587628
	2:leaf=-0.0218814667
booster[32]
0:[f34<0.5] yes=1,no=2,missing=1
	1:[f4<0.5] yes=3,no=4,missing=3
		3:[f29<0.5] yes=5,no=6,missing=5
			5:[f41<0.5] yes=9,no=10,missing=9
				9:leaf=0.00941393897
				10:leaf=-0.0496521741
			6:leaf=-0.0522898026
		4:[f0<0.5] yes=7,no=8,missing=7
			7:leaf=0.0213047471
			8:leaf=0.100000001
	2:leaf=0.100000001
booster[33]
0:[f43<0.5] yes=1,no=2,missing=1
	1:leaf=-0.0522736385
	2:leaf=0.100000001
booster[34]
0:[f73<0.5] yes=1,no=2,missing=1
	1:[f34<0.5] yes=3,no=4,missing=3
		3:[f14<0.5] yes=7,no=8,missing=7
			7:[f30<0.5] yes=9,no=10,missing=9
				9:leaf=0.051254686
				10:leaf=0.0942805409
			8:leaf=-0.0468827002
		4:leaf=-0.0519145504
	2:[f29<0.5] yes=5,no=6,missing=5
		5:leaf=-0.0232708119
		6:leaf=-0.0549020432
booster[35]
0:[f29<0.5] yes=1,no=2,missing=1
	1:[f75<0.5] yes=3,no=4,missing=3
		3:[f0<0.5] yes=5,no=6,missing=5
			5:[f4<0.5] yes=7,no=8,missing=7
				7:leaf=-0.050142806
				8:leaf=-0.0188075118
			6:[f73<0.5] yes=9,no=10,missing=9
				9:leaf=-0.0331588686
				10:leaf=-0.00120473059
		4:leaf=0.0571220517
	2:leaf=0.100000001
booster[36]
0:[f30<0.5] yes=1,no=2,missing=1
	1:[f73<0.5] yes=3,no=4,missing=3
		3:[f4<0.5] yes=5,no=6,missing=5
			5:[f7<0.5] yes=7,no=8,missing=7
				7:leaf=0.0886137038
				8:leaf=-0.0412094854
			6:leaf=-0.0451751314
		4:leaf=-0.0464641117
	2:leaf=-0.0524749048
booster[37]
0:[f62<0.5] yes=1,no=2,missing=1
	1:[f81<0.5] yes=3,no=4,missing=3
		3:[f29<0.5] yes=5,no=6,missing=5
			5:[f1<0.5] yes=7,no=8,missing=7
				7:leaf=-0.0424439907
				8:leaf=-0.0139682768
			6:leaf=-0.054771658
		4:leaf=0.0177156925
	2:leaf=0.100000001
booster[38]
0:[f10<0.5] yes=1,no=2,missing=1
	1:[f4<0.5] yes=3,no=4,missing=3
		3:[f0<0.5] yes=5,no=6,missing=5
			5:leaf=-0.0439400524
			6:leaf=-0.0550762601
		4:[f0<0.5] yes=7,no=8,missing=7
			7:leaf=0.00291092601
			8:leaf=-0.0483109094
	2:leaf=0.100000001
booster[39]
0:[f81<0.5] yes=1,no=2,missing=1
	1:leaf=-0.0522529371
	2:leaf=-0.0214598011
booster[40]
0:[f34<0.5] yes=1,no=2,missing=1
	1:[f4<0.5] yes=3,no=4,missing=3
		3:[f68<0.5] yes=5,no=6,missing=5
			5:[f75<0.5] yes=9,no=10,missing=9
				9:leaf=0.0107282307
				10:leaf=-0.0501838885
			6:leaf=-0.0546865128
		4:[f0<0.5] yes=7,no=8,missing=7
			7:leaf=0.0190345701
			8:leaf=0.100000001
	2:leaf=0.100000001
booster[41]
0:[f58<0.5] yes=1,no=2,missing=1
	1:[f30<0.5] yes=3,no=4,missing=3
		3:[f73<0.5] yes=5,no=6,missing=5
			5:[f35<0.5] yes=7,no=8,missing=7
				7:leaf=-0.0212508105
				8:leaf=-0.0515213683
			6:leaf=-0.053475298
		4:leaf=-0.0550138466
	2:leaf=0.100000001
booster[42]
0:[f73<0.5] yes=1,no=2,missing=1
	1:[f51<0.5] yes=3,no=4,missing=3
		3:[f14<0.5] yes=7,no=8,missing=7
			7:[f30<0.5] yes=9,no=10,missing=9
				9:leaf=0.044966992
				10:leaf=0.0820529386
			8:leaf=-0.046458073
		4:leaf=-0.0512061529
	2:[f29<0.5] yes=5,no=6,missing=5
		5:leaf=-0.0231209975
		6:leaf=-0.0546049774
booster[43]
0:[f29<0.5] yes=1,no=2,missing=1
	1:[f75<0.5] yes=3,no=4,missing=3
		3:[f1<0.5] yes=5,no=6,missing=5
			5:[f4<0.5] yes=7,no=8,missing=7
				7:leaf=-0.04961586
				8:leaf=-0.0184852835
			6:[f73<0.5] yes=9,no=10,missing=9
				9:leaf=-0.0323714241
				10:leaf=-0.00199842523
		4:leaf=0.0523714013
	2:leaf=0.100000001
booster[44]
0:[f30<0.5] yes=1,no=2,missing=1
	1:[f73<0.5] yes=3,no=4,missing=3
		3:[f4<0.5] yes=5,no=6,missing=5
			5:[f7<0.5] yes=9,no=10,missing=9
				9:leaf=0.078261368
				10:leaf=-0.0407244302
			6:leaf=-0.0446204059
		4:leaf=-0.0460398309
	2:leaf=-0.0520681702
booster[45]
0:[f62<0.5] yes=1,no=2,missing=1
	1:[f81<0.5] yes=3,no=4,missing=3
		3:[f38<0.5] yes=5,no=6,missing=5
			5:[f68<0.5] yes=7,no=8,missing=7
				7:leaf=-0.0263264161
				8:leaf=-0.0492400043
			6:leaf=-0.0540161617
		4:leaf=0.0166959204
	2:leaf=0.100000001
booster[46]
0:[f10<0.5] yes=1,no=2,missing=1
	1:[f4<0.5] yes=3,no=4,missing=3
		3:[f1<0.5] yes=5,no=6,missing=5
			5:leaf=-0.0432796665
			6:leaf=-0.0547652654
		4:[f1<0.5] yes=7,no=8,missing=7
			7:leaf=0.00216370495
			8:leaf=-0.0476819202
	2:leaf=0.100000001
booster[47]
0:[f81<0.5] yes=1,no=2,missing=1
	1:leaf=-0.0518270619
	2:leaf=-0.0206793323
booster[48]
0:[f7<0.5] yes=1,no=2,missing=1
	1:[f4<0.5] yes=3,no=4,missing=3
		3:[f68<0.5] yes=5,no=6,missing=5
			5:[f41<0.5] yes=9,no=10,missing=9
				9:leaf=0.0131484941
				10:leaf=-0.0493318811
			6:leaf=-0.054380741
		4:[f0<0.5] yes=7,no=8,missing=7
			7:leaf=0.0202070307
			8:leaf=0.100000001
	2:leaf=0.100000001
booster[49]
0:[f58<0.5] yes=1,no=2,missing=1
	1:[f0<0.5] yes=3,no=4,missing=3
		3:[f38<0.5] yes=5,no=6,missing=5
			5:[f68<0.5] yes=7,no=8,missing=7
				7:leaf=-0.024051128
				8:leaf=-0.0519727245
			6:leaf=-0.0526683219
		4:leaf=-0.054625839
	2:leaf=0.100000001
booster[50]
0:[f73<0.5] yes=1,no=2,missing=1
	1:[f34<0.5] yes=3,no=4,missing=3
		3:[f14<0.5] yes=7,no=8,missing=7
			7:[f30<0.5] yes=9,no=10,missing=9
				9:leaf=0.0422639176
				10:leaf=0.0719857886
			8:leaf=-0.0459079295
		4:leaf=-0.0511557125
	2:[f29<0.5] yes=5,no=6,missing=5
		5:leaf=-0.0229719765
		6:leaf=-0.0542854927
booster[51]
0:[f68<0.5] yes=1,no=2,missing=1
	1:[f75<0.5] yes=3,no=4,missing=3
		3:[f73<0.5] yes=5,no=6,missing=5
			5:[f1<0.5] yes=7,no=8,missing=7
				7:leaf=-0.0431259833
				8:leaf=-0.032248091
			6:[f57<0.5] yes=9,no=10,missing=9
				9:leaf=-0.000548454875
				10:leaf=-0.0453162342
		4:leaf=0.0474871323
	2:leaf=0.100000001
booster[52]
0:[f30<0.5] yes=1,no=2,missing=1
	1:[f73<0.5] yes=3,no=4,missing=3
		3:[f38<0.5] yes=5,no=6,missing=5
			5:[f34<0.5] yes=7,no=8,missing=7
				7:leaf=0.0720728114
				8:leaf=-0.0418274216
			6:leaf=-0.0440863669
		4:leaf=-0.0455797538
	2:leaf=-0.051658947
booster[53]
0:[f62<0.5] yes=1,no=2,missing=1
	1:[f81<0.5] yes=3,no=4,missing=3
		3:[f38<0.5] yes=5,no=6,missing=5
			5:[f68<0.5] yes=7,no=8,missing=7
				7:leaf=-0.0255903658
				8:leaf=-0.0488256142
			6:leaf=-0.0536326766
		4:leaf=0.015876608
	2:leaf=0.100000001
booster[54]
0:[f10<0.5] yes=1,no=2,missing=1
	1:[f5<0.5] yes=3,no=4,missing=3
		3:[f0<0.5] yes=5,no=6,missing=5
			5:[f68<0.5] yes=9,no=10,missing=9
				9:leaf=-0.0388053283
				10:leaf=-0.0524438806
			6:leaf=-0.0544614755
		4:[f0<0.5] yes=7,no=8,missing=7
			7:leaf=0.0014141429
			8:leaf=-0.0470851772
	2:leaf=0.100000001
booster[55]
0:[f30<0.5] yes=1,no=2,missing=1
	1:leaf=-0.0456093289
	2:leaf=-0.0547576211
booster[56]
0:[f34<0.5] yes=1,no=2,missing=1
	1:[f4<0.5] yes=3,no=4,missing=3
		3:[f29<0.5] yes=5,no=6,missing=5
			5:[f75<0.5] yes=9,no=10,missing=9
				9:leaf=0.00737774977
				10:leaf=-0.0496717691
			6:leaf=-0.0511128902
		4:[f0<0.5] yes=7,no=8,missing=7
			7:leaf=0.0146767022
			8:leaf=0.100000001
	2:leaf=0.100000001
booster[57]
0:[f43<0.5] yes=1,no=2,missing=1
	1:leaf=-0.0510926247
	2:leaf=0.100000001
booster[58]
0:[f73<0.5] yes=1,no=2,missing=1
	1:[f34<0.5] yes=3,no=4,missing=3
		3:[f81<0.5] yes=7,no=8,missing=7
			7:[f41<0.5] yes=9,no=10,missing=9
				9:leaf=0.0539220646
				10:leaf=-0.00371502503
			8:leaf=-0.048506435
		4:leaf=-0.050709784
	2:[f68<0.5] yes=5,no=6,missing=5
		5:leaf=-0.028667748
		6:leaf=-0.0487649068
booster[59]
0:[f29<0.5] yes=1,no=2,missing=1
	1:[f74<0.5] yes=3,no=4,missing=3
		3:[f0<0.5] yes=5,no=6,missing=5
			5:[f4<0.5] yes=9,no=10,missing=9
				9:leaf=-0.052431494
				10:leaf=-0.0149114328
			6:[f73<0.5] yes=11,no=12,missing=11
				11:leaf=-0.029693922
				12:leaf=-0.00333301397
		4:[f0<0.5] yes=7,no=8,missing=7
			7:leaf=0.00786071829
			8:leaf=0.0407118276
	2:leaf=0.100000001
booster[60]
0:[f30<0.5] yes=1,no=2,missing=1
	1:[f29<0.5] yes=3,no=4,missing=3
		3:[f4<0.5] yes=5,no=6,missing=5
			5:[f34<0.5] yes=7,no=8,missing=7
				7:leaf=0.0540341996
				8:leaf=-0.0412254483
			6:leaf=-0.0449429974
		4:leaf=-0.0516538695
	2:leaf=-0.0512407236
booster[61]
0:[f62<0.5] yes=1,no=2,missing=1
	1:[f29<0.5] yes=3,no=4,missing=3
		3:[f73<0.5] yes=5,no=6,missing=5
			5:[f0<0.5] yes=7,no=8,missing=7
				7:leaf=-0.0446026325
				8:leaf=-0.0243647657
			6:[f0<0.5] yes=9,no=10,missing=9
				9:leaf=-0.000746154343
				10:leaf=0.0619589686
		4:leaf=-0.0541647077
	2:leaf=0.100000001
booster[62]
0:[f10<0.5] yes=1,no=2,missing=1
	1:[f5<0.5] yes=3,no=4,missing=3
		3:[f0<0.5] yes=5,no=6,missing=5
			5:[f73<0.5] yes=9,no=10,missing=9
				9:leaf=-0.0369344763
				10:leaf=-0.0488698781
			6:leaf=-0.0541545115
		4:[f0<0.5] yes=7,no=8,missing=7
			7:leaf=0.000678566925
			8:leaf=-0.046474915
	2:leaf=0.100000001
booster[63]
0:[f81<0.5] yes=1,no=2,missing=1
	1:leaf=-0.0509554856
	2:leaf=-0.0180524644
booster[64]
0:[f34<0.5] yes=1,no=2,missing=1
	1:[f4<0.5] yes=3,no=4,missing=3
		3:[f68<0.5] yes=5,no=6,missing=5
			5:[f41<0.5] yes=9,no=10,missing=9
				9:leaf=0.00890958402
				10:leaf=-0.0488128588
			6:leaf=-0.0537515655
		4:[f0<0.5] yes=7,no=8,missing=7
			7:leaf=0.0132771796
			8:leaf=0.100000001
	2:leaf=0.100000001
booster[65]
0:[f43<0.5] yes=1,no=2,missing=1
	1:leaf=-0.0506387427
	2:leaf=0.100000001
booster[66]
0:[f73<0.5] yes=1,no=2,missing=1
	1:[f34<0.5] yes=3,no=4,missing=3
		3:[f79<0.5] yes=7,no=8,missing=7
			7:[f35<0.5] yes=11,no=12,missing=11
				11:leaf=0.0296404716
				12:leaf=0.0671368837
			8:leaf=0.100000001
		4:leaf=-0.0502483025
	2:[f68<0.5] yes=5,no=6,missing=5
		5:[f57<0.5] yes=9,no=10,missing=9
			9:leaf=-0.0320707075
			10:leaf=-0.0130535811
		6:leaf=-0.0482423939
booster[67]
0:[f73<0.5] yes=1,no=2,missing=1
	1:[f74<0.5] yes=3,no=4,missing=3
		3:[f1<0.5] yes=7,no=8,missing=7
			7:[f35<0.5] yes=11,no=12,missing=11
				11:leaf=-0.0510746613
				12:leaf=-0.0230578762
			8:leaf=-0.0297969915
		4:[f75<0.5] yes=9,no=10,missing=9
			9:leaf=-0.0184664857
			10:leaf=0.0364502072
	2:[f57<0.5] yes=5,no=6,missing=5
		5:leaf=0.100000001
		6:leaf=-0.02815005
booster[68]
0:[f30<0.5] yes=1,no=2,missing=1
	1:[f73<0.5] yes=3,no=4,missing=3
		3:[f4<0.5] yes=5,no=6,missing=5
			5:[f34<0.5] yes=9,no=10,missing=9
				9:leaf=0.0596357398
				10:leaf=-0.0404193588
			6:leaf=-0.0429574549
		4:leaf=-0.0449744239
	2:leaf=-0.0507997647
booster[69]
0:[f62<0.5] yes=1,no=2,missing=1
	1:[f29<0.5] yes=3,no=4,missing=3
		3:[f73<0.5] yes=5,no=6,missing=5
			5:[f0<0.5] yes=7,no=8,missing=7
				7:leaf=-0.0438962243
				8:leaf=-0.0237296913
			6:[f57<0.5] yes=9,no=10,missing=9
				9:leaf=0.0403035395
				10:leaf=-0.0308612436
		4:leaf=-0.053796161
	2:leaf=0.100000001
booster[70]
0:[f11<0.5] yes=1,no=2,missing=1
	1:[f4<0.5] yes=3,no=4,missing=3
		3:[f0<0.5] yes=5,no=6,missing=5
			5:[f73<0.5] yes=9,no=10,missing=9
				9:leaf=-0.0360909291
				10:leaf=-0.0483358018
			6:leaf=-0.0538459718
		4:[f0<0.5] yes=7,no=8,missing=7
			7:leaf=0.000333162927
			8:leaf=-0.0457614958
	2:leaf=0.100000001
booster[71]
0:[f81<0.5] yes=1,no=2,missing=1
	1:leaf=-0.050496906
	2:leaf=-0.0176948123
booster[72]
0:[f34<0.5] yes=1,no=2,missing=1
	1:[f4<0.5] yes=3,no=4,missing=3
		3:[f29<0.5] yes=5,no=6,missing=5
			5:[f75<0.5] yes=9,no=10,missing=9
				9:leaf=0.00648101885
				10:leaf=-0.0492227487
			6:leaf=-0.0501522534
		4:[f0<0.5] yes=7,no=8,missing=7
			7:leaf=0.0123416251
			8:leaf=0.100000001
	2:leaf=0.100000001
booster[73]
0:[f43<0.5] yes=1,no=2,missing=1
	1:leaf=-0.0501629412
	2:leaf=0.100000001
booster[74]
0:[f73<0.5] yes=1,no=2,missing=1
	1:[f34<0.5] yes=3,no=4,missing=3
		3:[f79<0.5] yes=7,no=8,missing=7
			7:[f81<0.5] yes=11,no=12,missing=11
				11:leaf=0.0375578068
				12:leaf=-0.0485036969
			8:leaf=0.100000001
		4:leaf=-0.0497661941
	2:[f29<0.5] yes=5,no=6,missing=5
		5:[f0<0.5] yes=9,no=10,missing=9
			9:[f57<0.5] yes=13,no=14,missing=13
				13:leaf=-0.0284652542
				14:leaf=-0.0106133986
			10:leaf=-0.0130870109
		6:leaf=-0.0532907918
booster[75]
0:[f64<0.5] yes=1,no=2,missing=1
	1:[f69<0.5] yes=3,no=4,missing=3
		3:[f75<0.5] yes=5,no=6,missing=5
			5:[f0<0.5] yes=7,no=8,missing=7
				7:leaf=-0.0406303294
				8:leaf=-0.0165461097
			6:leaf=0.0389486775
		4:leaf=0.100000001
	2:leaf=0.100000001
booster[76]
0:[f30<0.5] yes=1,no=2,missing=1
	1:[f73<0.5] yes=3,no=4,missing=3
		3:[f5<0.5] yes=5,no=6,missing=5
			5:[f34<0.5] yes=9,no=10,missing=9
				9:leaf=0.0539259911
				10:leaf=-0.0396433212
			6:leaf=-0.0422998145
		4:[f57<0.5] yes=7,no=8,missing=7
			7:leaf=-0.0472215973
			8:leaf=-0.0243253559
	2:leaf=-0.0503427759
booster[77]
0:[f29<0.5] yes=1,no=2,missing=1
	1:[f73<0.5] yes=3,no=4,missing=3
		3:[f38<0.5] yes=5,no=6,missing=5
			5:[f34<0.5] yes=9,no=10,missing=9
				9:leaf=-0.00824135542
				10:leaf=-0.0507877469
			6:leaf=-0.0520552285
		4:[f38<0.5] yes=7,no=8,missing=7
			7:[f0<0.5] yes=11,no=12,missing=11
				11:leaf=0.0501580052
				12:leaf=0.0995429382
			8:leaf=-0.0455821902
	2:leaf=-0.0534106568
booster[78]
0:[f10<0.5] yes=1,no=2,missing=1
	1:[f4<0.5] yes=3,no=4,missing=3
		3:[f0<0.5] yes=5,no=6,missing=5
			5:[f68<0.5] yes=9,no=10,missing=9
				9:leaf=-0.0361611992
				10:leaf=-0.0512080304
			6:leaf=-0.0535358079
		4:[f0<0.5] yes=7,no=8,missing=7
			7:leaf=0.000297204795
			8:leaf=-0.0449931733
	2:leaf=0.100000001
booster[79]
0:[f81<0.5] yes=1,no=2,missing=1
	1:leaf=-0.0500205159
	2:leaf=-0.0169226062
booster[80]
0:[f34<0.5] yes=1,no=2,missing=1
	1:[f4<0.5] yes=3,no=4,missing=3
		3:[f29<0.5] yes=5,no=6,missing=5
			5:[f75<0.5] yes=9,no=10,missing=9
				9:leaf=0.00622382201
				10:leaf=-0.0486171208
			6:leaf=-0.049640812
		4:[f0<0.5] yes=7,no=8,missing=7
			7:leaf=0.0108023258
			8:leaf=0.100000001
	2:leaf=0.100000001
booster[81]
0:[f43<0.5] yes=1,no=2,missing=1
	1:leaf=-0.04968445
	2:leaf=0.100000001
booster[82]
0:[f68<0.5] yes=1,no=2,missing=1
	1:[f7<0.5] yes=3,no=4,missing=3
		3:[f43<0.5] yes=5,no=6,missing=5
			5:[f81<0.5] yes=7,no=8,missing=7
				7:leaf=0.0344180129
				8:leaf=-0.0483104028
			6:leaf=-0.048816964
		4:leaf=-0.0490016304
	2:leaf=-0.04701842
booster[83]
0:[f29<0.5] yes=1,no=2,missing=1
	1:[f75<0.5] yes=3,no=4,missing=3
		3:[f0<0.5] yes=5,no=6,missing=5
			5:[f5<0.5] yes=7,no=8,missing=7
				7:leaf=-0.0472478978
				8:leaf=-0.0154811563
			6:[f5<0.5] yes=9,no=10,missing=9
				9:leaf=-0.0191252083
				10:leaf=-0.047313042
		4:leaf=0.0356619731
	2:leaf=0.100000001
booster[84]
0:[f30<0.5] yes=1,no=2,missing=1
	1:[f73<0.5] yes=3,no=4,missing=3
		3:[f4<0.5] yes=5,no=6,missing=5
			5:[f61<0.5] yes=7,no=8,missing=7
				7:leaf=0.0477677546
				8:leaf=-0.0568779372
			6:leaf=-0.0417692177
		4:leaf=-0.0436125956
	2:leaf=-0.049871482
booster[85]
0:[f62<0.5] yes=1,no=2,missing=1
	1:[f81<0.5] yes=3,no=4,missing=3
		3:[f29<0.5] yes=5,no=6,missing=5
			5:[f0<0.5] yes=7,no=8,missing=7
				7:leaf=-0.0388400778
				8:leaf=-0.0114738261
			6:leaf=-0.0527841039
		4:leaf=0.0199668687
	2:leaf=0.100000001
booster[86]
0:[f10<0.5] yes=1,no=2,missing=1
	1:[f4<0.5] yes=3,no=4,missing=3
		3:[f0<0.5] yes=5,no=6,missing=5
			5:[f68<0.5] yes=9,no=10,missing=9
				9:leaf=-0.0352254137
				10:leaf=-0.0507312603
			6:leaf=-0.0532230735
		4:[f0<0.5] yes=7,no=8,missing=7
			7:leaf=-0.000268744509
			8:leaf=-0.0443088226
	2:leaf=0.100000001
booster[87]
0:[f81<0.5] yes=1,no=2,missing=1
	1:leaf=-0.0495373271
	2:leaf=-0.0163221844
booster[88]
0:[f34<0.5] yes=1,no=2,missing=1
	1:[f4<0.5] yes=3,no=4,missing=3
		3:[f68<0.5] yes=5,no=6,missing=5
			5:[f41<0.5] yes=9,no=10,missing=9
				9:leaf=0.00784822833
				10:leaf=-0.0477807857
			6:leaf=-0.0527217947
		4:[f1<0.5] yes=7,no=8,missing=7
			7:leaf=0.00968084764
			8:leaf=0.100000001
	2:leaf=0.100000001
booster[89]
0:[f43<0.5] yes=1,no=2,missing=1
	1:leaf=-0.0491910093
	2:leaf=0.100000001
booster[90]
0:[f73<0.5] yes=1,no=2,missing=1
	1:[f34<0.5] yes=3,no=4,missing=3
		3:[f79<0.5] yes=7,no=8,missing=7
			7:[f62<0.5] yes=11,no=12,missing=11
				11:leaf=0.0317238458
				12:leaf=-0.0515518673
			8:leaf=0.100000001
		4:leaf=-0.0487175137
	2:[f57<0.5] yes=5,no=6,missing=5
		5:[f64<0.5] yes=9,no=10,missing=9
			9:[f3<0.5] yes=13,no=14,missing=13
				13:leaf=-0.0282655843
				14:leaf=-0.0478985347
			10:leaf=-0.0513032041
		6:leaf=-0.0126687577
booster[91]
0:[f29<0.5] yes=1,no=2,missing=1
	1:[f74<0.5] yes=3,no=4,missing=3
		3:[f31<0.5] yes=5,no=6,missing=5
			5:[f5<0.5] yes=9,no=10,missing=9
				9:leaf=-0.0511507764
				10:leaf=-0.0125461845
			6:[f73<0.5] yes=11,no=12,missing=11
				11:leaf=-0.0274136215
				12:leaf=-0.00626115454
		4:[f31<0.5] yes=7,no=8,missing=7
			7:leaf=0.0101903314
			8:leaf=0.0317850225
	2:leaf=0.100000001
booster[92]
0:[f30<0.5] yes=1,no=2,missing=1
	1:[f33<0.5] yes=3,no=4,missing=3
		3:[f4<0.5] yes=5,no=6,missing=5
			5:[f34<0.5] yes=7,no=8,missing=7
				7:leaf=0.0384755731
				8:leaf=-0.0396625474
			6:leaf=-0.0427713394
		4:leaf=-0.0503576957
	2:leaf=-0.0493822843
booster[93]
0:[f62<0.5] yes=1,no=2,missing=1
	1:[f38<0.5] yes=3,no=4,missing=3
		3:[f64<0.5] yes=5,no=6,missing=5
			5:[f73<0.5] yes=7,no=8,missing=7
				7:leaf=-0.0297958907
				8:leaf=-0.000105144631
			6:leaf=-0.0515643246
		4:leaf=-0.0522231571
	2:leaf=0.100000001
booster[94]
0:[f10<0.5] yes=1,no=2,missing=1
	1:[f4<0.5] yes=3,no=4,missing=3
		3:[f0<0.5] yes=7,no=8,missing=7
			7:[f68<0.5] yes=11,no=12,missing=11
				11:leaf=-0.0343183652
				12:leaf=-0.0502333939
			8:leaf=-0.0529103242
		4:[f0<0.5] yes=9,no=10,missing=9
			9:leaf=-0.000535925385
			10:leaf=-0.0435697101
	2:[f14<0.5] yes=5,no=6,missing=5
		5:leaf=0.0598527454
		6:leaf=0.100000001
booster[95]
0:[f81<0.5] yes=1,no=2,missing=1
	1:leaf=-0.0490453765
	2:leaf=-0.015492091
booster[96]
0:[f34<0.5] yes=1,no=2,missing=1
	1:[f4<0.5] yes=3,no=4,missing=3
		3:[f73<0.5] yes=5,no=6,missing=5
			5:[f0<0.5] yes=9,no=10,missing=9
				9:leaf=-0.00932784565
				10:leaf=0.0241441373
			6:[f64<0.5] yes=11,no=12,missing=11
				11:leaf=-0.0230222959
				12:leaf=-0.0507316589
		4:[f0<0.5] yes=7,no=8,missing=7
			7:leaf=0.00855593383
			8:leaf=0.100000001
	2:leaf=0.100000001
booster[97]
0:[f61<0.5] yes=1,no=2,missing=1
	1:[f58<0.5] yes=3,no=4,missing=3
		3:leaf=-0.0535203591
		4:leaf=0.100000001
	2:leaf=0.100000001
booster[98]
0:[f73<0.5] yes=1,no=2,missing=1
	1:[f34<0.5] yes=3,no=4,missing=3
		3:[f79<0.5] yes=7,no=8,missing=7
			7:[f61<0.5] yes=11,no=12,missing=11
				11:leaf=0.028911883
				12:leaf=-0.0481983013
			8:leaf=0.100000001
		4:leaf=-0.0481279194
	2:[f57<0.5] yes=5,no=6,missing=5
		5:[f64<0.5] yes=9,no=10,missing=9
			9:[f69<0.5] yes=13,no=14,missing=13
				13:leaf=-0.0222376399
				14:leaf=-0.0493378416
			10:leaf=-0.0508229025
		6:leaf=-0.0116799716
booster[99]
0:[f29<0.5] yes=1,no=2,missing=1
	1:[f74<0.5] yes=3,no=4,missing=3
		3:[f0<0.5] yes=5,no=6,missing=5
			5:[f4<0.5] yes=9,no=10,missing=9
				9:leaf=-0.0507076867
				10:leaf=-0.0123154232
			6:[f73<0.5] yes=11,no=12,missing=11
				11:leaf=-0.0266833249
				12:leaf=-0.00636076275
		4:[f0<0.5] yes=7,no=8,missing=7
			7:leaf=0.0102525428
			8:leaf=0.0296832826
	2:leaf=0.100000001
booster[100]
0:[f30<0.5] yes=1,no=2,missing=1
	1:[f73<0.5] yes=3,no=4,missing=3
		3:[f4<0.5] yes=5,no=6,missing=5
			5:[f61<0.5] yes=7,no=8,missing=7
				7:leaf=0.0414027274
				8:leaf=-0.056375321
			6:leaf=-0.0405764543
		4:leaf=-0.0426803641
	2:leaf=-0.0488843583
booster[101]
0:[f62<0.5] yes=1,no=2,missing=1
	1:[f29<0.5] yes=3,no=4,missing=3
		3:[f73<0.5] yes=5,no=6,missing=5
			5:[f0<0.5] yes=7,no=8,missing=7
				7:leaf=-0.0412850119
				8:leaf=-0.0213868823
			6:[f57<0.5] yes=9,no=10,missing=9
				9:leaf=0.0329240784
				10:leaf=-0.0295959003
		4:leaf=-0.0523287542
	2:leaf=0.100000001
booster[102]
0:[f10<0.5] yes=1,no=2,missing=1
	1:[f4<0.5] yes=3,no=4,missing=3
		3:[f0<0.5] yes=7,no=8,missing=7
			7:[f68<0.5] yes=9,no=10,missing=9
				9:leaf=-0.0333612002
				10:leaf=-0.0497106686
			8:leaf=-0.0525973141
		4:leaf=-0.00948575046
	2:[f14<0.5] yes=5,no=6,missing=5
		5:leaf=0.0549615733
		6:leaf=0.100000001
booster[103]
0:[f81<0.5] yes=1,no=2,missing=1
	1:leaf=-0.048541788
	2:leaf=-0.0146702547
booster[104]
0:[f34<0.5] yes=1,no=2,missing=1
	1:[f68<0.5] yes=3,no=4,missing=3
		3:[f4<0.5] yes=5,no=6,missing=5
			5:[f43<0.5] yes=7,no=8,missing=7
				7:leaf=0.00729609001
				8:leaf=-0.0481534712
			6:[f1<0.5] yes=9,no=10,missing=9
				9:leaf=0.00955564715
				10:leaf=0.100000001
		4:leaf=-0.0522201024
	2:leaf=0.0972959325
booster[105]
0:[f61<0.5] yes=1,no=2,missing=1
	1:[f58<0.5] yes=3,no=4,missing=3
		3:leaf=-0.0532384627
		4:leaf=0.100000001
	2:leaf=0.100000001
booster[106]
0:[f29<0.5] yes=1,no=2,missing=1
	1:[f79<0.5] yes=3,no=4,missing=3
		3:[f34<0.5] yes=5,no=6,missing=5
			5:[f62<0.5] yes=7,no=8,missing=7
				7:leaf=0.0230277348
				8:leaf=-0.0520141833
			6:leaf=-0.0475936271
		4:leaf=0.100000001
	2:leaf=-0.0520224571
booster[107]
0:[f29<0.5] yes=1,no=2,missing=1
	1:[f74<0.5] yes=3,no=4,missing=3
		3:[f1<0.5] yes=5,no=6,missing=5
			5:[f4<0.5] yes=9,no=10,missing=9
				9:leaf=-0.050289046
				10:leaf=-0.0120538827
			6:[f73<0.5] yes=11,no=12,missing=11
				11:leaf=-0.0258090328
				12:leaf=-0.00623932621
		4:[f1<0.5] yes=7,no=8,missing=7
			7:leaf=0.0104144178
			8:leaf=0.0280256327
	2:leaf=0.0966089889
booster[108]
0:[f30<0.5] yes=1,no=2,missing=1
	1:[f73<0.5] yes=3,no=4,missing=3
		3:[f5<0.5] yes=5,no=6,missing=5
			5:[f34<0.5] yes=7,no=8,missing=7
				7:leaf=0.0393673405
				8:leaf=-0.0383702368
			6:leaf=-0.0400079936
		4:leaf=-0.0419160165
	2:leaf=-0.0483548157
booster[109]
0:[f62<0.5] yes=1,no=2,missing=1
	1:[f29<0.5] yes=3,no=4,missing=3
		3:[f73<0.5] yes=5,no=6,missing=5
			5:[f0<0.5] yes=7,no=8,missing=7
				7:leaf=-0.0405067615
				8:leaf=-0.0205534529
			6:[f0<0.5] yes=9,no=10,missing=9
				9:leaf=-0.00337101193
				10:leaf=0.0423358642
		4:leaf=-0.0518734939
	2:leaf=0.100000001
booster[110]
0:[f41<0.5] yes=1,no=2,missing=1
	1:[f4<0.5] yes=3,no=4,missing=3
		3:[f1<0.5] yes=7,no=8,missing=7
			7:[f68<0.5] yes=9,no=10,missing=9
				9:leaf=-0.0323703997
				10:leaf=-0.0491633452
			8:leaf=-0.0522811376
		4:leaf=-0.00901649706
	2:[f14<0.5] yes=5,no=6,missing=5
		5:leaf=0.0490288995
		6:leaf=0.0988337025
booster[111]
0:[f81<0.5] yes=1,no=2,missing=1
	1:leaf=-0.0480262525
	2:leaf=-0.0137535874
booster[112]
0:[f7<0.5] yes=1,no=2,missing=1
	1:[f4<0.5] yes=3,no=4,missing=3
		3:[f29<0.5] yes=5,no=6,missing=5
			5:[f75<0.5] yes=9,no=10,missing=9
				9:leaf=0.0069182911
				10:leaf=-0.0483159237
			6:[f64<0.5] yes=11,no=12,missing=11
				11:leaf=-0.0318316184
				12:leaf=-0.0497074239
		4:[f1<0.5] yes=7,no=8,missing=7
			7:leaf=0.00872048177
			8:leaf=0.100000001
	2:leaf=0.0886038467
booster[113]
0:[f43<0.5] yes=1,no=2,missing=1
	1:leaf=-0.0475928783
	2:leaf=0.100000001
booster[114]
0:[f73<0.5] yes=1,no=2,missing=1
	1:[f34<0.5] yes=3,no=4,missing=3
		3:[f14<0.5] yes=7,no=8,missing=7
			7:[f38<0.5] yes=11,no=12,missing=11
				11:leaf=0.0213722493
				12:leaf=0.0475980975
			8:leaf=-0.0458897166
		4:leaf=-0.0468277037
	2:[f29<0.5] yes=5,no=6,missing=5
		5:[f0<0.5] yes=9,no=10,missing=9
			9:[f57<0.5] yes=13,no=14,missing=13
				13:leaf=-0.0285465624
				14:leaf=-0.00737543544
			10:leaf=-0.012255271
		6:leaf=-0.051250156
booster[115]
0:[f29<0.5] yes=1,no=2,missing=1
	1:[f74<0.5] yes=3,no=4,missing=3
		3:[f0<0.5] yes=5,no=6,missing=5
			5:[f5<0.5] yes=9,no=10,missing=9
				9:leaf=-0.0498570837
				10:leaf=-0.0118104955
			6:[f73<0.5] yes=11,no=12,missing=11
				11:leaf=-0.0250432231
				12:leaf=-0.00559136225
		4:[f75<0.5] yes=7,no=8,missing=7
			7:leaf=-0.0192191266
			8:leaf=0.0501785055
	2:leaf=0.0898837969
booster[116]
0:[f0<0.5] yes=1,no=2,missing=1
	1:[f73<0.5] yes=3,no=4,missing=3
		3:[f38<0.5] yes=5,no=6,missing=5
			5:[f61<0.5] yes=7,no=8,missing=7
				7:leaf=0.0356028713
				8:leaf=-0.0558496676
			6:leaf=-0.0425966196
		4:leaf=-0.0413109064
	2:leaf=-0.047371462
booster[117]
0:[f62<0.5] yes=1,no=2,missing=1
	1:[f81<0.5] yes=3,no=4,missing=3
		3:[f29<0.5] yes=5,no=6,missing=5
			5:[f73<0.5] yes=7,no=8,missing=7
				7:leaf=-0.0369638167
				8:leaf=0.0137631362
			6:leaf=-0.0511623584
		4:leaf=0.0269751046
	2:leaf=0.100000001
booster[118]
0:[f10<0.5] yes=1,no=2,missing=1
	1:[f5<0.5] yes=3,no=4,missing=3
		3:[f0<0.5] yes=5,no=6,missing=5
			5:[f73<0.5] yes=7,no=8,missing=7
				7:leaf=-0.0302255582
				8:leaf=-0.0446817465
			6:leaf=-0.0519783869
		4:leaf=-0.00855644699
	2:leaf=0.0786885098
booster[119]
0:[f81<0.5] yes=1,no=2,missing=1
	1:leaf=-0.0475006215
	2:leaf=-0.0127965761
booster[120]
0:[f34<0.5] yes=1,no=2,missing=1
	1:[f68<0.5] yes=3,no=4,missing=3
		3:[f1<0.5] yes=5,no=6,missing=5
			5:[f41<0.5] yes=7,no=8,missing=7
				7:leaf=0.00191443157
				8:leaf=-0.0463223867
			6:[f4<0.5] yes=9,no=10,missing=9
				9:leaf=0.0149778789
				10:leaf=0.0980795845
		4:leaf=-0.0515352264
	2:leaf=0.0854736194
booster[121]
0:[f43<0.5] yes=1,no=2,missing=1
	1:[f30<0.5] yes=3,no=4,missing=3
		3:leaf=-0.0418143384
		4:leaf=-0.0519759841
	2:leaf=0.100000001
booster[122]
0:[f73<0.5] yes=1,no=2,missing=1
	1:[f79<0.5] yes=3,no=4,missing=3
		3:[f34<0.5] yes=7,no=8,missing=7
			7:[f81<0.5] yes=11,no=12,missing=11
				11:leaf=0.0227619931
				12:leaf=-0.0488759391
			8:leaf=-0.0461896993
		4:leaf=0.0995982885
	2:[f29<0.5] yes=5,no=6,missing=5
		5:[f0<0.5] yes=9,no=10,missing=9
			9:[f57<0.5] yes=13,no=14,missing=13
				13:leaf=-0.0279982723
				14:leaf=-0.00638348004
			10:leaf=-0.0116829006
		6:leaf=-0.0508084707
booster[123]
0:[f29<0.5] yes=1,no=2,missing=1
	1:[f75<0.5] yes=3,no=4,missing=3
		3:[f0<0.5] yes=5,no=6,missing=5
			5:[f4<0.5] yes=7,no=8,missing=7
				7:leaf=-0.044123359
				8:leaf=-0.0140307965
			6:[f4<0.5] yes=9,no=10,missing=9
				9:leaf=-0.016140189
				10:leaf=-0.0445419513
		4:leaf=0.027279092
	2:leaf=0.0844198093
booster[124]
0:[f30<0.5] yes=1,no=2,missing=1
	1:[f73<0.5] yes=3,no=4,missing=3
		3:[f74<0.5] yes=5,no=6,missing=5
			5:[f61<0.5] yes=7,no=8,missing=7
				7:leaf=0.03169927
				8:leaf=-0.0546479635
			6:leaf=-0.0550018735
		4:leaf=-0.0402337387
	2:leaf=-0.0473091751
booster[125]
0:[f62<0.5] yes=1,no=2,missing=1
	1:[f81<0.5] yes=3,no=4,missing=3
		3:[f29<0.5] yes=5,no=6,missing=5
			5:[f73<0.5] yes=7,no=8,missing=7
				7:leaf=-0.0361175612
				8:leaf=0.0124540655
			6:leaf=-0.0507173203
		4:leaf=0.0263766404
	2:leaf=0.100000001
booster[126]
0:[f10<0.5] yes=1,no=2,missing=1
	1:[f4<0.5] yes=3,no=4,missing=3
		3:[f0<0.5] yes=7,no=8,missing=7
			7:[f68<0.5] yes=9,no=10,missing=9
				9:leaf=-0.0304541532
				10:leaf=-0.0480726771
			8:leaf=-0.0516939759
		4:leaf=-0.00782398414
	2:[f14<0.5] yes=5,no=6,missing=5
		5:leaf=0.0435711369
		6:leaf=0.0876643881
booster[127]
0:[f30<0.5] yes=1,no=2,missing=1
	1:[f35<0.5] yes=3,no=4,missing=3
		3:[f73<0.5] yes=5,no=6,missing=5
			5:[f34<0.5] yes=7,no=8,missing=7
				7:leaf=-0.0229737442
				8:leaf=-0.0447121672
			6:leaf=-0.0433633216
		4:leaf=-0.0485460721
	2:leaf=-0.0521246567
booster[128]
0:[f34<0.5] yes=1,no=2,missing=1
	1:[f68<0.5] yes=3,no=4,missing=3
		3:[f4<0.5] yes=5,no=6,missing=5
			5:[f75<0.5] yes=7,no=8,missing=7
				7:leaf=0.00670069782
				8:leaf=-0.0478475839
			6:[f0<0.5] yes=9,no=10,missing=9
				9:leaf=0.00764912087
				10:leaf=0.0925421193
		4:leaf=-0.0511542745
	2:leaf=0.0807441026
booster[129]
0:[f43<0.5] yes=1,no=2,missing=1
	1:[f30<0.5] yes=3,no=4,missing=3
		3:leaf=-0.0411041901
		4:leaf=-0.0516950265
	2:leaf=0.0979413241
booster[130]
0:[f68<0.5] yes=1,no=2,missing=1
	1:[f79<0.5] yes=3,no=4,missing=3
		3:[f4<0.5] yes=7,no=8,missing=7
			7:[f0<0.5] yes=11,no=12,missing=11
				11:leaf=-0.0141234044
				12:leaf=0.0302669704
			8:[f0<0.5] yes=13,no=14,missing=13
				13:leaf=0.0604370646
				14:leaf=-0.0531854145
		4:leaf=0.0933890045
	2:[f64<0.5] yes=5,no=6,missing=5
		5:[f70<0.5] yes=9,no=10,missing=9
			9:leaf=-0.0119252037
			10:leaf=-0.0443385318
		6:leaf=-0.0487414859
booster[131]
0:[f29<0.5] yes=1,no=2,missing=1
	1:[f74<0.5] yes=3,no=4,missing=3
		3:[f0<0.5] yes=5,no=6,missing=5
			5:[f5<0.5] yes=9,no=10,missing=9
				9:leaf=-0.0490826145
				10:leaf=-0.0107797068
			6:leaf=-0.0193544533
		4:[f75<0.5] yes=7,no=8,missing=7
			7:leaf=-0.0161270779
			8:leaf=0.0434766747
	2:leaf=0.0797652975
booster[132]
0:[f30<0.5] yes=1,no=2,missing=1
	1:[f73<0.5] yes=3,no=4,missing=3
		3:[f4<0.5] yes=5,no=6,missing=5
			5:[f74<0.5] yes=7,no=8,missing=7
				7:leaf=0.0314107649
				8:leaf=-0.0541784763
			6:leaf=-0.0391238555
		4:leaf=-0.0393621922
	2:leaf=-0.0467747003
booster[133]
0:[f62<0.5] yes=1,no=2,missing=1
	1:[f38<0.5] yes=3,no=4,missing=3
		3:[f64<0.5] yes=5,no=6,missing=5
			5:[f73<0.5] yes=7,no=8,missing=7
				7:leaf=-0.0246542413
				8:leaf=0.00217590923
			6:leaf=-0.049130436
		4:leaf=-0.0510681942
	2:leaf=0.100000001
booster[134]
0:[f10<0.5] yes=1,no=2,missing=1
	1:[f5<0.5] yes=3,no=4,missing=3
		3:[f0<0.5] yes=7,no=8,missing=7
			7:[f68<0.5] yes=9,no=10,missing=9
				9:leaf=-0.0294395145
				10:leaf=-0.0475117899
			8:leaf=-0.051411964
		4:leaf=-0.00724795833
	2:[f14<0.5] yes=5,no=6,missing=5
		5:leaf=0.0404568724
		6:leaf=0.0829236507
booster[135]
0:[f81<0.5] yes=1,no=2,missing=1
	1:[f85<0.5] yes=3,no=4,missing=3
		3:leaf=-0.0473532751
		4:leaf=-0.0255528837
	2:leaf=-0.00974491145
booster[136]
0:[f34<0.5] yes=1,no=2,missing=1
	1:[f68<0.5] yes=3,no=4,missing=3
		3:[f0<0.5] yes=5,no=6,missing=5
			5:[f57<0.5] yes=7,no=8,missing=7
				7:leaf=0.00174875429
				8:leaf=-0.0477962755
			6:[f4<0.5] yes=9,no=10,missing=9
				9:leaf=0.013695389
				10:leaf=0.0869271904
		4:leaf=-0.0507810414
	2:leaf=0.0769089386
booster[137]
0:[f43<0.5] yes=1,no=2,missing=1
	1:leaf=-0.0460118391
	2:leaf=0.0922901854
booster[138]
0:[f73<0.5] yes=1,no=2,missing=1
	1:[f79<0.5] yes=3,no=4,missing=3
		3:[f34<0.5] yes=7,no=8,missing=7
			7:[f4<0.5] yes=11,no=12,missing=11
				11:leaf=0.0116438959
				12:leaf=0.0389489308
			8:leaf=-0.0451719798
		4:leaf=0.0880830809
	2:[f57<0.5] yes=5,no=6,missing=5
		5:[f64<0.5] yes=9,no=10,missing=9
			9:[f69<0.5] yes=13,no=14,missing=13
				13:leaf=-0.0208969768
				14:leaf=-0.0465336181
			10:leaf=-0.0482244603
		6:leaf=-0.00862052571
booster[139]
0:[f29<0.5] yes=1,no=2,missing=1
	1:[f74<0.5] yes=3,no=4,missing=3
		3:[f0<0.5] yes=5,no=6,missing=5
			5:[f4<0.5] yes=7,no=8,missing=7
				7:leaf=-0.0486782566
				8:leaf=-0.0100751137
			6:[f73<0.5] yes=9,no=10,missing=9
				9:leaf=-0.0229799915
				10:leaf=-0.00339738466
		4:leaf=0.0193848275
	2:leaf=0.0759220496
booster[140]
0:[f1<0.5] yes=1,no=2,missing=1
	1:[f73<0.5] yes=3,no=4,missing=3
		3:[f74<0.5] yes=5,no=6,missing=5
			5:[f61<0.5] yes=7,no=8,missing=7
				7:leaf=0.0252411049
				8:leaf=-0.0538567416
			6:leaf=-0.0533756204
		4:leaf=-0.0387329273
	2:leaf=-0.0456967987
booster[141]
0:[f38<0.5] yes=1,no=2,missing=1
	1:[f68<0.5] yes=3,no=4,missing=3
		3:[f73<0.5] yes=5,no=6,missing=5
			5:[f34<0.5] yes=9,no=10,missing=9
				9:leaf=-0.00279657077
				10:leaf=-0.0464236066
			6:[f57<0.5] yes=11,no=12,missing=11
				11:leaf=0.0555615015
				12:leaf=-0.00552672753
		4:[f69<0.5] yes=7,no=8,missing=7
			7:[f33<0.5] yes=13,no=14,missing=13
				13:leaf=0.0227295216
				14:leaf=-0.0466503836
			8:leaf=-0.0490354151
	2:leaf=-0.0506739281
booster[142]
0:[f11<0.5] yes=1,no=2,missing=1
	1:[f4<0.5] yes=3,no=4,missing=3
		3:[f0<0.5] yes=7,no=8,missing=7
			7:[f68<0.5] yes=9,no=10,missing=9
				9:leaf=-0.0284983851
				10:leaf=-0.0469523035
			8:leaf=-0.0511269644
		4:leaf=-0.00642243121
	2:[f14<0.5] yes=5,no=6,missing=5
		5:leaf=0.0373312049
		6:leaf=0.0787963793
booster[143]
0:[f81<0.5] yes=1,no=2,missing=1
	1:[f30<0.5] yes=3,no=4,missing=3
		3:leaf=-0.040117003
		4:leaf=-0.0514680408
	2:leaf=-0.00889500789
booster[144]
0:[f34<0.5] yes=1,no=2,missing=1
	1:[f4<0.5] yes=3,no=4,missing=3
		3:[f29<0.5] yes=5,no=6,missing=5
			5:[f75<0.5] yes=9,no=10,missing=9
				9:leaf=0.00439755945
				10:leaf=-0.0473717265
			6:leaf=-0.0441410057
		4:[f0<0.5] yes=7,no=8,missing=7
			7:leaf=0.00589176454
			8:leaf=0.083240889
	2:leaf=0.0733344406
booster[145]
0:[f61<0.5] yes=1,no=2,missing=1
	1:[f58<0.5] yes=3,no=4,missing=3
		3:leaf=-0.0521917827
		4:leaf=0.0778863579
	2:leaf=0.100000001
booster[146]
0:[f29<0.5] yes=1,no=2,missing=1
	1:[f79<0.5] yes=3,no=4,missing=3
		3:[f92<0.5] yes=5,no=6,missing=5
			5:[f4<0.5] yes=7,no=8,missing=7
				7:leaf=0.00228582928
				8:leaf=0.0315585434
			6:leaf=0.0646303445
		4:leaf=0.0836929679
	2:leaf=-0.0500270091
booster[147]
0:[f29<0.5] yes=1,no=2,missing=1
	1:[f74<0.5] yes=3,no=4,missing=3
		3:[f0<0.5] yes=5,no=6,missing=5
			5:[f4<0.5] yes=9,no=10,missing=9
				9:leaf=-0.048267059
				10:leaf=-0.00955405738
			6:[f73<0.5] yes=11,no=12,missing=11
				11:leaf=-0.0221997071
				12:leaf=-0.00308649894
		4:leaf=0.0184701849
	2:leaf=0.0725499541
booster[148]
0:[f30<0.5] yes=1,no=2,missing=1
	1:[f73<0.5] yes=3,no=4,missing=3
		3:[f4<0.5] yes=5,no=6,missing=5
			5:[f74<0.5] yes=7,no=8,missing=7
				7:leaf=0.0274193678
				8:leaf=-0.0525254719
			6:leaf=-0.0385524221
		4:leaf=-0.0376184545
	2:leaf=-0.0457172729
booster[149]
0:[f29<0.5] yes=1,no=2,missing=1
	1:[f38<0.5] yes=3,no=4,missing=3
		3:[f73<0.5] yes=5,no=6,missing=5
			5:[f34<0.5] yes=7,no=8,missing=7
				7:leaf=-0.00262020691
				8:leaf=-0.0456491783
			6:[f57<0.5] yes=9,no=10,missing=9
				9:leaf=0.0513676219
				10:leaf=-0.00501447497
		4:leaf=-0.0502906814
	2:leaf=-0.0499390177
booster[150]
0:[f10<0.5] yes=1,no=2,missing=1
	1:[f4<0.5] yes=3,no=4,missing=3
		3:[f0<0.5] yes=7,no=8,missing=7
			7:[f68<0.5] yes=9,no=10,missing=9
				9:leaf=-0.0275321044
				10:leaf=-0.046398066
			8:leaf=-0.0508597605
		4:leaf=-0.00569691649
	2:[f14<0.5] yes=5,no=6,missing=5
		5:leaf=0.0349891856
		6:leaf=0.0756530389
booster[151]
0:[f81<0.5] yes=1,no=2,missing=1
	1:[f30<0.5] yes=3,no=4,missing=3
		3:leaf=-0.0393765531
		4:leaf=-0.0511992574
	2:leaf=-0.00801623147
booster[152]
0:[f7<0.5] yes=1,no=2,missing=1
	1:[f68<0.5] yes=3,no=4,missing=3
		3:[f4<0.5] yes=5,no=6,missing=5
			5:[f41<0.5] yes=7,no=8,missing=7
				7:leaf=0.0073491442
				8:leaf=-0.0449671708
			6:[f0<0.5] yes=9,no=10,missing=9
				9:leaf=0.0090238452
				10:leaf=0.079987146
		4:leaf=-0.0501596928
	2:leaf=0.0682915077
booster[153]
0:[f61<0.5] yes=1,no=2,missing=1
	1:[f59<0.5] yes=3,no=4,missing=3
		3:leaf=-0.0519768298
		4:leaf=0.0679929033
	2:leaf=0.100000001
booster[154]
0:[f29<0.5] yes=1,no=2,missing=1
	1:[f79<0.5] yes=3,no=4,missing=3
		3:[f62<0.5] yes=5,no=6,missing=5
			5:[f92<0.5] yes=7,no=8,missing=7
				7:leaf=0.0100735808
				8:leaf=0.059694685
			6:leaf=-0.0503154956
		4:leaf=0.0797663033
	2:leaf=-0.0495987497
booster[155]
0:[f29<0.5] yes=1,no=2,missing=1
	1:[f74<0.5] yes=3,no=4,missing=3
		3:[f0<0.5] yes=5,no=6,missing=5
			5:[f5<0.5] yes=9,no=10,missing=9
				9:leaf=-0.0478299186
				10:leaf=-0.00911540072
			6:leaf=-0.0171292834
		4:[f75<0.5] yes=7,no=8,missing=7
			7:leaf=-0.0148408664
			8:leaf=0.0359889343
	2:leaf=0.0695367679
booster[156]
0:[f0<0.5] yes=1,no=2,missing=1
	1:[f38<0.5] yes=3,no=4,missing=3
		3:[f73<0.5] yes=5,no=6,missing=5
			5:[f61<0.5] yes=7,no=8,missing=7
				7:leaf=0.0259037055
				8:leaf=-0.05278752
			6:[f29<0.5] yes=9,no=10,missing=9
				9:leaf=-0.0213818755
				10:leaf=-0.045077201
		4:leaf=-0.0421910025
	2:leaf=-0.0445647165
booster[157]
0:[f38<0.5] yes=1,no=2,missing=1
	1:[f64<0.5] yes=3,no=4,missing=3
		3:[f81<0.5] yes=5,no=6,missing=5
			5:[f73<0.5] yes=7,no=8,missing=7
				7:leaf=-0.0134109305
				8:leaf=0.0180930197
			6:leaf=0.0663627833
		4:leaf=-0.0475997515
	2:leaf=-0.0499212667
booster[158]
0:[f10<0.5] yes=1,no=2,missing=1
	1:[f4<0.5] yes=3,no=4,missing=3
		3:[f0<0.5] yes=7,no=8,missing=7
			7:[f68<0.5] yes=9,no=10,missing=9
				9:leaf=-0.0265160147
				10:leaf=-0.0458076075
			8:leaf=-0.0506094471
		4:leaf=-0.00507558696
	2:[f14<0.5] yes=5,no=6,missing=5
		5:leaf=0.0325099118
		6:leaf=0.0725628659
booster[159]
0:[f81<0.5] yes=1,no=2,missing=1
	1:[f30<0.5] yes=3,no=4,missing=3
		3:leaf=-0.038601663
		4:leaf=-0.0509494133
	2:leaf=-0.00712858094
booster[160]
0:[f34<0.5] yes=1,no=2,missing=1
	1:[f68<0.5] yes=3,no=4,missing=3
		3:[f4<0.5] yes=5,no=6,missing=5
			5:[f75<0.5] yes=7,no=8,missing=7
				7:leaf=0.00576735567
				8:leaf=-0.0469234735
			6:[f0<0.5] yes=9,no=10,missing=9
				9:leaf=0.00641705701
				10:leaf=0.0768709034
		4:leaf=-0.0497960635
	2:leaf=0.0681470186
booster[161]
0:[f43<0.5] yes=1,no=2,missing=1
	1:[f30<0.5] yes=3,no=4,missing=3
		3:[f73<0.5] yes=5,no=6,missing=5
			5:[f35<0.5] yes=7,no=8,missing=7
				7:leaf=-0.0259779282
				8:leaf=-0.0456804
			6:leaf=-0.0479458533
		4:leaf=-0.0506805442
	2:leaf=0.0794059634
booster[162]
0:[f73<0.5] yes=1,no=2,missing=1
	1:[f79<0.5] yes=3,no=4,missing=3
		3:[f34<0.5] yes=7,no=8,missing=7
			7:[f75<0.5] yes=11,no=12,missing=11
				11:leaf=0.0121639417
				12:leaf=0.0568114482
			8:leaf=-0.0439680479
		4:leaf=0.0763167888
	2:[f29<0.5] yes=5,no=6,missing=5
		5:[f57<0.5] yes=9,no=10,missing=9
			9:[f0<0.5] yes=13,no=14,missing=13
				13:leaf=-0.0282669403
				14:leaf=-0.00787157472
			10:leaf=-0.0078272922
		6:leaf=-0.0487276539
booster[163]
0:[f29<0.5] yes=1,no=2,missing=1
	1:[f74<0.5] yes=3,no=4,missing=3
		3:[f1<0.5] yes=5,no=6,missing=5
			5:[f5<0.5] yes=9,no=10,missing=9
				9:leaf=-0.0474027246
				10:leaf=-0.00896349549
			6:[f73<0.5] yes=11,no=12,missing=11
				11:leaf=-0.0209847987
				12:leaf=-0.00176707457
		4:[f75<0.5] yes=7,no=8,missing=7
			7:leaf=-0.0136133479
			8:leaf=0.0335326158
	2:leaf=0.0669571534
booster[164]
0:[f30<0.5] yes=1,no=2,missing=1
	1:[f73<0.5] yes=3,no=4,missing=3
		3:[f74<0.5] yes=5,no=6,missing=5
			5:[f4<0.5] yes=9,no=10,missing=9
				9:leaf=0.0242319927
				10:leaf=-0.0362877212
			6:leaf=-0.0522557683
		4:[f29<0.5] yes=7,no=8,missing=7
			7:leaf=-0.025306493
			8:leaf=-0.0444034003
	2:leaf=-0.04463204
booster[165]
0:[f62<0.5] yes=1,no=2,missing=1
	1:[f81<0.5] yes=3,no=4,missing=3
		3:[f38<0.5] yes=5,no=6,missing=5
			5:[f29<0.5] yes=7,no=8,missing=7
				7:leaf=-0.0160723999
				8:leaf=-0.0488893017
			6:leaf=-0.0495359451
		4:leaf=0.030014012
	2:leaf=0.0956308395
booster[166]
0:[f10<0.5] yes=1,no=2,missing=1
	1:[f4<0.5] yes=3,no=4,missing=3
		3:[f0<0.5] yes=5,no=6,missing=5
			5:[f73<0.5] yes=7,no=8,missing=7
				7:leaf=-0.0240087416
				8:leaf=-0.0404116139
			6:leaf=-0.0503580235
		4:leaf=-0.00478153443
	2:leaf=0.0556312576
booster[167]
0:[f81<0.5] yes=1,no=2,missing=1
	1:[f30<0.5] yes=3,no=4,missing=3
		3:leaf=-0.0378431045
		4:leaf=-0.0507026315
	2:leaf=-0.00601798622
booster[168]
0:[f7<0.5] yes=1,no=2,missing=1
	1:[f4<0.5] yes=3,no=4,missing=3
		3:[f29<0.5] yes=5,no=6,missing=5
			5:[f75<0.5] yes=9,no=10,missing=9
				9:leaf=0.0049809888
				10:leaf=-0.0462618321
			6:[f64<0.5] yes=11,no=12,missing=11
				11:leaf=-0.0198146049
				12:leaf=-0.0459501594
		4:[f74<0.5] yes=7,no=8,missing=7
			7:[f0<0.5] yes=13,no=14,missing=13
				13:leaf=-0.012058286
				14:leaf=0.0723490044
			8:leaf=0.100000001
	2:leaf=0.0634090677
booster[169]
0:[f58<0.5] yes=1,no=2,missing=1
	1:[f30<0.5] yes=3,no=4,missing=3
		3:[f73<0.5] yes=5,no=6,missing=5
			5:[f35<0.5] yes=7,no=8,missing=7
				7:leaf=-0.00133032037
				8:leaf=-0.0453387201
			6:leaf=-0.047583323
		4:leaf=-0.0504420362
	2:leaf=0.0696636513
booster[170]
0:[f73<0.5] yes=1,no=2,missing=1
	1:[f79<0.5] yes=3,no=4,missing=3
		3:[f81<0.5] yes=7,no=8,missing=7
			7:[f34<0.5] yes=11,no=12,missing=11
				11:leaf=0.0157701634
				12:leaf=-0.0431346148
			8:leaf=-0.0487990789
		4:leaf=0.0732300654
	2:[f29<0.5] yes=5,no=6,missing=5
		5:[f57<0.5] yes=9,no=10,missing=9
			9:[f0<0.5] yes=13,no=14,missing=13
				13:leaf=-0.0278239641
				14:leaf=-0.00762962177
			10:leaf=-0.00697843451
		6:leaf=-0.0482989885
booster[171]
0:[f68<0.5] yes=1,no=2,missing=1
	1:[f74<0.5] yes=3,no=4,missing=3
		3:[f0<0.5] yes=5,no=6,missing=5
			5:[f4<0.5] yes=9,no=10,missing=9
				9:leaf=-0.046884343
				10:leaf=-0.00653290516
			6:leaf=-0.0166609585
		4:[f75<0.5] yes=7,no=8,missing=7
			7:leaf=-0.0125070158
			8:leaf=0.031578321
	2:leaf=0.0634461641
booster[172]
0:[f30<0.5] yes=1,no=2,missing=1
	1:[f73<0.5] yes=3,no=4,missing=3
		3:[f74<0.5] yes=5,no=6,missing=5
			5:[f61<0.5] yes=9,no=10,missing=9
				9:leaf=0.0218711607
				10:leaf=-0.0516746007
			6:leaf=-0.0513724647
		4:leaf=-0.0350290351
	2:leaf=-0.0440618768
booster[173]
0:[f62<0.5] yes=1,no=2,missing=1
	1:[f29<0.5] yes=3,no=4,missing=3
		3:[f73<0.5] yes=5,no=6,missing=5
			5:[f0<0.5] yes=7,no=8,missing=7
				7:leaf=-0.035428863
				8:leaf=-0.0141833276
			6:[f0<0.5] yes=9,no=10,missing=9
				9:leaf=-0.00736914715
				10:leaf=0.0302066207
		4:leaf=-0.0488486029
	2:leaf=0.0909897983
booster[174]
0:[f11<0.5] yes=1,no=2,missing=1
	1:[f1<0.5] yes=3,no=4,missing=3
		3:[f4<0.5] yes=7,no=8,missing=7
			7:[f68<0.5] yes=9,no=10,missing=9
				9:leaf=-0.0244025644
				10:leaf=-0.0447006933
			8:leaf=0.00201962586
		4:leaf=-0.0503307059
	2:[f14<0.5] yes=5,no=6,missing=5
		5:leaf=0.0269052591
		6:leaf=0.0676586553
booster[175]
0:[f81<0.5] yes=1,no=2,missing=1
	1:[f30<0.5] yes=3,no=4,missing=3
		3:leaf=-0.0370743386
		4:leaf=-0.0504613034
	2:leaf=-0.00492724637
booster[176]
0:[f7<0.5] yes=1,no=2,missing=1
	1:[f4<0.5] yes=3,no=4,missing=3
		3:[f73<0.5] yes=5,no=6,missing=5
			5:[f0<0.5] yes=9,no=10,missing=9
				9:leaf=-0.0038130593
				10:leaf=0.0160096399
			6:[f29<0.5] yes=11,no=12,missing=11
				11:leaf=-0.00492611947
				12:leaf=-0.0480199233
		4:[f74<0.5] yes=7,no=8,missing=7
			7:[f0<0.5] yes=13,no=14,missing=13
				13:leaf=-0.0116027892
				14:leaf=0.0699803531
			8:leaf=0.100000001
	2:leaf=0.0612134039
booster[177]
0:[f43<0.5] yes=1,no=2,missing=1
	1:[f30<0.5] yes=3,no=4,missing=3
		3:leaf=-0.0365891568
		4:leaf=-0.0502035692
	2:leaf=0.0745601356
booster[178]
0:[f29<0.5] yes=1,no=2,missing=1
	1:[f62<0.5] yes=3,no=4,missing=3
		3:[f81<0.5] yes=5,no=6,missing=5
			5:[f43<0.5] yes=7,no=8,missing=7
				7:leaf=0.015967777
				8:leaf=-0.0448825806
			6:leaf=-0.048553776
		4:leaf=-0.0489059985
	2:leaf=-0.0484142937
booster[179]
0:[f68<0.5] yes=1,no=2,missing=1
	1:[f74<0.5] yes=3,no=4,missing=3
		3:[f73<0.5] yes=5,no=6,missing=5
			5:[f0<0.5] yes=9,no=10,missing=9
				9:leaf=-0.0353193656
				10:leaf=-0.0220948048
			6:[f0<0.5] yes=11,no=12,missing=11
				11:leaf=-0.0182333682
				12:leaf=0.00411564764
		4:[f75<0.5] yes=7,no=8,missing=7
			7:leaf=-0.0111347632
			8:leaf=0.0291210115
	2:leaf=0.0611947365
booster[180]
0:[f0<0.5] yes=1,no=2,missing=1
	1:[f38<0.5] yes=3,no=4,missing=3
		3:[f73<0.5] yes=5,no=6,missing=5
			5:[f61<0.5] yes=7,no=8,missing=7
				7:leaf=0.0220620539
				8:leaf=-0.0509444587
			6:[f29<0.5] yes=9,no=10,missing=9
				9:leaf=-0.0186894704
				10:leaf=-0.0430899002
		4:leaf=-0.0411199778
	2:leaf=-0.0427711159
booster[181]
0:[f62<0.5] yes=1,no=2,missing=1
	1:[f81<0.5] yes=3,no=4,missing=3
		3:[f38<0.5] yes=5,no=6,missing=5
			5:[f29<0.5] yes=7,no=8,missing=7
				7:leaf=-0.0148756057
				8:leaf=-0.048017852
			6:leaf=-0.0490329117
		4:leaf=0.0315663293
	2:leaf=0.087003611
booster[182]
0:[f10<0.5] yes=1,no=2,missing=1
	1:[f0<0.5] yes=3,no=4,missing=3
		3:[f4<0.5] yes=7,no=8,missing=7
			7:[f68<0.5] yes=9,no=10,missing=9
				9:leaf=-0.0234600715
				10:leaf=-0.0440902449
			8:leaf=0.00187006395
		4:leaf=-0.0500781201
	2:[f14<0.5] yes=5,no=6,missing=5
		5:leaf=0.0252277311
		6:leaf=0.0655954033
booster[183]
0:[f81<0.5] yes=1,no=2,missing=1
	1:[f30<0.5] yes=3,no=4,missing=3
		3:leaf=-0.036294695
		4:leaf=-0.0502192564
	2:leaf=-0.00429185154
booster[184]
0:[f34<0.5] yes=1,no=2,missing=1
	1:[f68<0.5] yes=3,no=4,missing=3
		3:[f0<0.5] yes=5,no=6,missing=5
			5:[f57<0.5] yes=7,no=8,missing=7
				7:leaf=0.00193597306
				8:leaf=-0.0465102606
			6:[f4<0.5] yes=9,no=10,missing=9
				9:leaf=0.0101156272
				10:leaf=0.069167681
		4:leaf=-0.0489062555
	2:leaf=0.0621023066
booster[185]
0:[f61<0.5] yes=1,no=2,missing=1
	1:[f58<0.5] yes=3,no=4,missing=3
		3:leaf=-0.0514027774
		4:leaf=0.0649991855
	2:leaf=0.100000001
booster[186]
0:[f73<0.5] yes=1,no=2,missing=1
	1:[f34<0.5] yes=3,no=4,missing=3
		3:[f75<0.5] yes=7,no=8,missing=7
			7:[f74<0.5] yes=11,no=12,missing=11
				11:leaf=0.0144947339
				12:leaf=-0.0470965207
			8:leaf=0.0509523153
		4:leaf=-0.0423827767
	2:[f29<0.5] yes=5,no=6,missing=5
		5:[f0<0.5] yes=9,no=10,missing=9
			9:leaf=-0.0196081679
			10:leaf=-0.0101003451
		6:leaf=-0.0474372841
booster[187]
0:[f29<0.5] yes=1,no=2,missing=1
	1:[f74<0.5] yes=3,no=4,missing=3
		3:[f0<0.5] yes=5,no=6,missing=5
			5:[f5<0.5] yes=7,no=8,missing=7
				7:leaf=-0.0464191958
				8:leaf=-0.00788969174
			6:[f73<0.5] yes=9,no=10,missing=9
				9:leaf=-0.0187178832
				10:leaf=-0.00170895585
		4:leaf=0.0153842662
	2:leaf=0.0610184148
booster[188]
0:[f30<0.5] yes=1,no=2,missing=1
	1:[f73<0.5] yes=3,no=4,missing=3
		3:[f4<0.5] yes=5,no=6,missing=5
			5:[f61<0.5] yes=9,no=10,missing=9
				9:leaf=0.0207521021
				10:leaf=-0.0500289276
			6:leaf=-0.0363026038
		4:[f29<0.5] yes=7,no=8,missing=7
			7:leaf=-0.0229557808
			8:leaf=-0.0423774011
	2:leaf=-0.0428836904
booster[189]
0:[f62<0.5] yes=1,no=2,missing=1
	1:[f38<0.5] yes=3,no=4,missing=3
		3:[f29<0.5] yes=5,no=6,missing=5
			5:[f73<0.5] yes=7,no=8,missing=7
				7:leaf=-0.0204527173
				8:leaf=0.017806584
			6:leaf=-0.0480420589
		4:leaf=-0.0487661362
	2:leaf=0.0831611753
booster[190]
0:[f10<0.5] yes=1,no=2,missing=1
	1:[f0<0.5] yes=3,no=4,missing=3
		3:[f5<0.5] yes=7,no=8,missing=7
			7:[f73<0.5] yes=9,no=10,missing=9
				9:leaf=-0.0208720397
				10:leaf=-0.038154196
			8:leaf=0.00146313268
		4:leaf=-0.0498310588
	2:[f14<0.5] yes=5,no=6,missing=5
		5:leaf=0.0236518607
		6:leaf=0.0636937916
booster[191]
0:[f81<0.5] yes=1,no=2,missing=1
	1:[f30<0.5] yes=3,no=4,missing=3
		3:[f35<0.5] yes=5,no=6,missing=5
			5:leaf=-0.0306909513
			6:leaf=-0.0461682044
		4:leaf=-0.0499825142
	2:leaf=-0.0034692199
booster[192]
0:[f82<0.5] yes=1,no=2,missing=1
	1:[f76<0.5] yes=3,no=4,missing=3
		3:[f51<0.5] yes=5,no=6,missing=5
			5:[f92<0.5] yes=7,no=8,missing=7
				7:leaf=0.00225866772
				8:leaf=-0.0506235138
			6:leaf=0.0517621413
		4:leaf=0.089038834
	2:leaf=0.0962093398
booster[193]
0:[f61<0.5] yes=1,no=2,missing=1
	1:[f58<0.5] yes=3,no=4,missing=3
		3:leaf=-0.0512290262
		4:leaf=0.0629475042
	2:leaf=0.100000001
booster[194]
0:[f73<0.5] yes=1,no=2,missing=1
	1:[f4<0.5] yes=3,no=4,missing=3
		3:[f1<0.5] yes=7,no=8,missing=7
			7:[f85<0.5] yes=13,no=14,missing=13
				13:leaf=-0.00935218297
				14:leaf=-0.0248356964
			8:[f74<0.5] yes=15,no=16,missing=15
				15:leaf=0.0235176608
				16:leaf=0.0359254777
		4:[f1<0.5] yes=9,no=10,missing=9
			9:leaf=0.0437146537
			10:leaf=-0.0489692949
	2:[f29<0.5] yes=5,no=6,missing=5
		5:[f1<0.5] yes=11,no=12,missing=11
			11:leaf=-0.0190470051
			12:leaf=-0.00946730282
		6:leaf=-0.0469842069
booster[195]
0:[f68<0.5] yes=1,no=2,missing=1
	1:[f74<0.5] yes=3,no=4,missing=3
		3:[f73<0.5] yes=5,no=6,missing=5
			5:[f1<0.5] yes=9,no=10,missing=9
				9:leaf=-0.0338537358
				10:leaf=-0.0207343586
			6:[f1<0.5] yes=11,no=12,missing=11
				11:leaf=-0.016516814
				12:leaf=0.00370139489
		4:[f75<0.5] yes=7,no=8,missing=7
			7:leaf=-0.00967132021
			8:leaf=0.0272262674
	2:leaf=0.0574663691
booster[196]
0:[f30<0.5] yes=1,no=2,missing=1
	1:[f4<0.5] yes=3,no=4,missing=3
		3:[f73<0.5] yes=5,no=6,missing=5
			5:[f34<0.5] yes=7,no=8,missing=7
				7:leaf=0.0202071648
				8:leaf=-0.0337106809
			6:[f29<0.5] yes=9,no=10,missing=9
				9:leaf=-0.0170510951
				10:leaf=-0.041642122
		4:leaf=-0.0378182754
	2:leaf=-0.0422682837
booster[197]
0:[f38<0.5] yes=1,no=2,missing=1
	1:[f29<0.5] yes=3,no=4,missing=3
		3:[f81<0.5] yes=5,no=6,missing=5
			5:[f34<0.5] yes=7,no=8,missing=7
				7:leaf=0.00529502099
				8:leaf=-0.0421265773
			6:leaf=0.0585278049
		4:leaf=-0.0475950055
	2:leaf=-0.0484512746
booster[198]
0:[f10<0.5] yes=1,no=2,missing=1
	1:[f0<0.5] yes=3,no=4,missing=3
		3:[f4<0.5] yes=7,no=8,missing=7
			7:[f68<0.5] yes=9,no=10,missing=9
				9:leaf=-0.0213993993
				10:leaf=-0.0428921878
			8:leaf=0.00106666074
		4:leaf=-0.0495857373
	2:[f14<0.5] yes=5,no=6,missing=5
		5:leaf=0.0220723618
		6:leaf=0.0619553626
booster[199]
0:[f0<0.5] yes=1,no=2,missing=1
	1:[f35<0.5] yes=3,no=4,missing=3
		3:[f73<0.5] yes=5,no=6,missing=5
			5:leaf=-0.0200688727
			6:leaf=-0.0368836746
		4:leaf=-0.0458599031
	2:leaf=-0.0498476438
booster[200]
0:[f34<0.5] yes=1,no=2,missing=1
	1:[f68<0.5] yes=3,no=4,missing=3
		3:[f0<0.5] yes=5,no=6,missing=5
			5:[f41<0.5] yes=7,no=8,missing=7
				7:leaf=0.00206271536
				8:leaf=-0.0431120284
			6:[f5<0.5] yes=9,no=10,missing=9
				9:leaf=0.00935676415
				10:leaf=0.0658103749
		4:leaf=-0.0484223105
	2:leaf=0.0583404899
booster[201]
0:[f61<0.5] yes=1,no=2,missing=1
	1:[f58<0.5] yes=3,no=4,missing=3
		3:leaf=-0.051056426
		4:leaf=0.0613546148
	2:leaf=0.100000001
booster[202]
0:[f73<0.5] yes=1,no=2,missing=1
	1:[f79<0.5] yes=3,no=4,missing=3
		3:[f4<0.5] yes=7,no=8,missing=7
			7:[f0<0.5] yes=9,no=10,missing=9
				9:leaf=-0.0110688237
				10:leaf=0.0195892435
			8:[f0<0.5] yes=11,no=12,missing=11
				11:leaf=0.0402997546
				12:leaf=-0.0482977033
		4:leaf=0.0679681301
	2:[f33<0.5] yes=5,no=6,missing=5
		5:leaf=-0.0224524699
		6:leaf=-0.0432302468
booster[203]
0:[f29<0.5] yes=1,no=2,missing=1
	1:[f74<0.5] yes=3,no=4,missing=3
		3:[f0<0.5] yes=5,no=6,missing=5
			5:[f4<0.5] yes=9,no=10,missing=9
				9:leaf=-0.0457889885
				10:leaf=-0.00648529595
			6:[f73<0.5] yes=11,no=12,missing=11
				11:leaf=-0.0171659775
				12:leaf=-0.00223607174
		4:[f75<0.5] yes=7,no=8,missing=7
			7:leaf=-0.00830391701
			8:leaf=0.0260301381
	2:leaf=0.0579618625
booster[204]
0:[f30<0.5] yes=1,no=2,missing=1
	1:[f74<0.5] yes=3,no=4,missing=3
		3:[f4<0.5] yes=5,no=6,missing=5
			5:[f73<0.5] yes=7,no=8,missing=7
				7:leaf=0.0185720902
				8:leaf=-0.0282214787
			6:leaf=-0.0364462323
		4:leaf=-0.0514394008
	2:leaf=-0.0416514874
booster[205]
0:[f62<0.5] yes=1,no=2,missing=1
	1:[f81<0.5] yes=3,no=4,missing=3
		3:[f0<0.5] yes=5,no=6,missing=5
			5:[f73<0.5] yes=7,no=8,missing=7
				7:leaf=-0.0410169028
				8:leaf=-0.0137905451
			6:[f68<0.5] yes=9,no=10,missing=9
				9:leaf=-0.00289628166
				10:leaf=-0.0470578969
		4:leaf=0.0311381109
	2:leaf=0.0797646865
booster[206]
0:[f11<0.5] yes=1,no=2,missing=1
	1:[f0<0.5] yes=3,no=4,missing=3
		3:[f4<0.5] yes=7,no=8,missing=7
			7:[f68<0.5] yes=9,no=10,missing=9
				9:leaf=-0.0204529874
				10:leaf=-0.0422513261
			8:leaf=0.00126735203
		4:leaf=-0.0493497141
	2:[f14<0.5] yes=5,no=6,missing=5
		5:leaf=0.020374259
		6:leaf=0.0602943711
booster[207]
0:[f30<0.5] yes=1,no=2,missing=1
	1:[f35<0.5] yes=3,no=4,missing=3
		3:[f73<0.5] yes=5,no=6,missing=5
			5:leaf=-0.0165130179
			6:leaf=-0.0356858931
		4:leaf=-0.0454734117
	2:leaf=-0.049725458
booster[208]
0:[f82<0.5] yes=1,no=2,missing=1
	1:[f76<0.5] yes=3,no=4,missing=3
		3:[f7<0.5] yes=5,no=6,missing=5
			5:[f92<0.5] yes=7,no=8,missing=7
				7:leaf=0.00220320909
				8:leaf=-0.0499026477
			6:leaf=0.0480781011
		4:leaf=0.0863451734
	2:leaf=0.0932891294
booster[209]
0:[f61<0.5] yes=1,no=2,missing=1
	1:[f58<0.5] yes=3,no=4,missing=3
		3:leaf=-0.0508940592
		4:leaf=0.0597133636
	2:leaf=0.100000001
booster[210]
0:[f73<0.5] yes=1,no=2,missing=1
	1:[f79<0.5] yes=3,no=4,missing=3
		3:[f75<0.5] yes=7,no=8,missing=7
			7:[f74<0.5] yes=11,no=12,missing=11
				11:leaf=0.00851930305
				12:leaf=-0.0471809991
			8:leaf=0.0459505133
		4:leaf=0.0658616126
	2:[f29<0.5] yes=5,no=6,missing=5
		5:[f0<0.5] yes=9,no=10,missing=9
			9:leaf=-0.0178129375
			10:leaf=-0.00829725247
		6:leaf=-0.0461143441
booster[211]
0:[f29<0.5] yes=1,no=2,missing=1
	1:[f74<0.5] yes=3,no=4,missing=3
		3:[f1<0.5] yes=5,no=6,missing=5
			5:[f5<0.5] yes=9,no=10,missing=9
				9:leaf=-0.0453877002
				10:leaf=-0.00595672801
			6:[f73<0.5] yes=11,no=12,missing=11
				11:leaf=-0.016266007
				12:leaf=-0.00225071399
		4:[f75<0.5] yes=7,no=8,missing=7
			7:leaf=-0.00730492035
			8:leaf=0.0244928729
	2:leaf=0.0565859377
booster[212]
0:[f0<0.5] yes=1,no=2,missing=1
	1:[f38<0.5] yes=3,no=4,missing=3
		3:[f74<0.5] yes=5,no=6,missing=5
			5:[f73<0.5] yes=7,no=8,missing=7
				7:leaf=0.0171294492
				8:leaf=-0.0272505414
			6:leaf=-0.050650306
		4:leaf=-0.0387729742
	2:leaf=-0.040151488
booster[213]
0:[f38<0.5] yes=1,no=2,missing=1
	1:[f29<0.5] yes=3,no=4,missing=3
		3:[f73<0.5] yes=5,no=6,missing=5
			5:[f0<0.5] yes=7,no=8,missing=7
				7:leaf=-0.0125174271
				8:leaf=0.00314175268
			6:[f57<0.5] yes=9,no=10,missing=9
				9:leaf=0.0348277912
				10:leaf=-0.0056355237
		4:leaf=-0.0467862599
	2:leaf=-0.0479140207
booster[214]
0:[f10<0.5] yes=1,no=2,missing=1
	1:[f0<0.5] yes=3,no=4,missing=3
		3:[f5<0.5] yes=7,no=8,missing=7
			7:[f68<0.5] yes=9,no=10,missing=9
				9:leaf=-0.0196044929
				10:leaf=-0.0416310728
			8:leaf=0.00155939418
		4:leaf=-0.0490984432
	2:[f14<0.5] yes=5,no=6,missing=5
		5:leaf=0.0183370709
		6:leaf=0.0585204549
booster[215]
0:[f30<0.5] yes=1,no=2,missing=1
	1:[f35<0.5] yes=3,no=4,missing=3
		3:leaf=-0.0228384789
		4:leaf=-0.0450731479
	2:leaf=-0.0494837426
booster[216]
0:[f34<0.5] yes=1,no=2,missing=1
	1:[f68<0.5] yes=3,no=4,missing=3
		3:[f75<0.5] yes=5,no=6,missing=5
			5:[f74<0.5] yes=7,no=8,missing=7
				7:leaf=0.00578214228
				8:leaf=0.0905372053
			6:leaf=-0.0453970283
		4:leaf=-0.0479603522
	2:leaf=0.0554158799
booster[217]
0:[f61<0.5] yes=1,no=2,missing=1
	1:[f58<0.5] yes=3,no=4,missing=3
		3:leaf=-0.0507335067
		4:leaf=0.0582691729
	2:leaf=0.100000001
booster[218]
0:[f73<0.5] yes=1,no=2,missing=1
	1:[f75<0.5] yes=3,no=4,missing=3
		3:[f74<0.5] yes=7,no=8,missing=7
			7:[f35<0.5] yes=11,no=12,missing=11
				11:leaf=0.00307313818
				12:leaf=0.0336762927
			8:leaf=-0.0458917283
		4:leaf=0.0433911942
	2:[f29<0.5] yes=5,no=6,missing=5
		5:[f0<0.5] yes=9,no=10,missing=9
			9:leaf=-0.0171855222
			10:leaf=-0.00781459361
		6:leaf=-0.045613829
booster[219]
0:[f29<0.5] yes=1,no=2,missing=1
	1:[f74<0.5] yes=3,no=4,missing=3
		3:[f1<0.5] yes=5,no=6,missing=5
			5:[f4<0.5] yes=9,no=10,missing=9
				9:leaf=-0.0449219719
				10:leaf=-0.00596932182
			6:leaf=-0.0122229494
		4:[f75<0.5] yes=7,no=8,missing=7
			7:leaf=-0.00645470992
			8:leaf=0.0237500779
	2:leaf=0.0552954674
booster[220]
0:[f30<0.5] yes=1,no=2,missing=1
	1:[f4<0.5] yes=3,no=4,missing=3
		3:[f73<0.5] yes=5,no=6,missing=5
			5:[f7<0.5] yes=7,no=8,missing=7
				7:leaf=0.0154903671
				8:leaf=-0.0271692555
			6:leaf=-0.0271233302
		4:leaf=-0.0358454734
	2:leaf=-0.0403574966
booster[221]
0:[f62<0.5] yes=1,no=2,missing=1
	1:[f81<0.5] yes=3,no=4,missing=3
		3:[f38<0.5] yes=5,no=6,missing=5
			5:[f29<0.5] yes=7,no=8,missing=7
				7:leaf=-0.0133109735
				8:leaf=-0.0457253903
			6:leaf=-0.0475626178
		4:leaf=0.0311617292
	2:leaf=0.0767776817
booster[222]
0:[f10<0.5] yes=1,no=2,missing=1
	1:[f0<0.5] yes=3,no=4,missing=3
		3:[f38<0.5] yes=7,no=8,missing=7
			7:[f73<0.5] yes=9,no=10,missing=9
				9:leaf=-0.0169046465
				10:leaf=-0.0351230316
			8:leaf=0.00114640361
		4:leaf=-0.0488635972
	2:[f14<0.5] yes=5,no=6,missing=5
		5:leaf=0.0169862229
		6:leaf=0.0571705103
booster[223]
0:[f30<0.5] yes=1,no=2,missing=1
	1:[f35<0.5] yes=3,no=4,missing=3
		3:[f73<0.5] yes=5,no=6,missing=5
			5:leaf=-0.0145548312
			6:leaf=-0.0341077708
		4:leaf=-0.0447646827
	2:leaf=-0.0492525846
booster[224]
0:[f34<0.5] yes=1,no=2,missing=1
	1:[f68<0.5] yes=3,no=4,missing=3
		3:[f85<0.5] yes=5,no=6,missing=5
			5:[f0<0.5] yes=7,no=8,missing=7
				7:leaf=0.000697830517
				8:leaf=0.0234046411
			6:leaf=-0.0382175371
		4:leaf=-0.047599081
	2:leaf=0.0539577007
booster[225]
0:[f61<0.5] yes=1,no=2,missing=1
	1:[f58<0.5] yes=3,no=4,missing=3
		3:leaf=-0.050578732
		4:leaf=0.0568690076
	2:leaf=0.100000001
booster[226]
0:[f73<0.5] yes=1,no=2,missing=1
	1:[f75<0.5] yes=3,no=4,missing=3
		3:[f74<0.5] yes=7,no=8,missing=7
			7:[f5<0.5] yes=11,no=12,missing=11
				11:leaf=0.00266909786
				12:leaf=0.0322717205
			8:leaf=-0.0441550948
		4:leaf=0.0407957919
	2:[f29<0.5] yes=5,no=6,missing=5
		5:[f0<0.5] yes=9,no=10,missing=9
			9:leaf=-0.0167850144
			10:leaf=-0.00773744751
		6:leaf=-0.0451023541
booster[227]
0:[f29<0.5] yes=1,no=2,missing=1
	1:[f74<0.5] yes=3,no=4,missing=3
		3:[f0<0.5] yes=5,no=6,missing=5
			5:[f4<0.5] yes=9,no=10,missing=9
				9:leaf=-0.0444828235
				10:leaf=-0.00551600289
			6:[f73<0.5] yes=11,no=12,missing=11
				11:leaf=-0.0153405024
				12:leaf=-0.00182253297
		4:[f75<0.5] yes=7,no=8,missing=7
			7:leaf=-0.00520958751
			8:leaf=0.0227483902
	2:leaf=0.0540347062
booster[228]
0:[f0<0.5] yes=1,no=2,missing=1
	1:[f74<0.5] yes=3,no=4,missing=3
		3:[f4<0.5] yes=5,no=6,missing=5
			5:[f73<0.5] yes=7,no=8,missing=7
				7:leaf=0.0144597236
				8:leaf=-0.0256830845
			6:leaf=-0.0343958884
		4:leaf=-0.0501668118
	2:leaf=-0.0388300382
booster[229]
0:[f62<0.5] yes=1,no=2,missing=1
	1:[f81<0.5] yes=3,no=4,missing=3
		3:[f38<0.5] yes=5,no=6,missing=5
			5:[f29<0.5] yes=7,no=8,missing=7
				7:leaf=-0.0128528988
				8:leaf=-0.0452116989
			6:leaf=-0.0472343564
		4:leaf=0.0298843179
	2:leaf=0.0745152235
booster[230]
0:[f10<0.5] yes=1,no=2,missing=1
	1:[f31<0.5] yes=3,no=4,missing=3
		3:[f4<0.5] yes=7,no=8,missing=7
			7:[f73<0.5] yes=9,no=10,missing=9
				9:leaf=-0.0159309488
				10:leaf=-0.0343222246
			8:leaf=0.00135674945
		4:leaf=-0.0486386269
	2:[f14<0.5] yes=5,no=6,missing=5
		5:leaf=0.0156562012
		6:leaf=0.0558999777
booster[231]
0:[f30<0.5] yes=1,no=2,missing=1
	1:[f35<0.5] yes=3,no=4,missing=3
		3:[f73<0.5] yes=5,no=6,missing=5
			5:leaf=-0.013635694
			6:leaf=-0.0332441181
		4:leaf=-0.0443725735
	2:leaf=-0.0490323491
booster[232]
0:[f34<0.5] yes=1,no=2,missing=1
	1:[f68<0.5] yes=3,no=4,missing=3
		3:[f75<0.5] yes=5,no=6,missing=5
			5:[f74<0.5] yes=7,no=8,missing=7
				7:leaf=0.00508680334
				8:leaf=0.0834665522
			6:leaf=-0.0448015109
		4:leaf=-0.0472287759
	2:leaf=0.0526800863
booster[233]
0:[f61<0.5] yes=1,no=2,missing=1
	1:[f58<0.5] yes=3,no=4,missing=3
		3:leaf=-0.0504268184
		4:leaf=0.0555490442
	2:leaf=0.100000001
booster[234]
0:[f73<0.5] yes=1,no=2,missing=1
	1:[f92<0.5] yes=3,no=4,missing=3
		3:[f75<0.5] yes=7,no=8,missing=7
			7:[f4<0.5] yes=9,no=10,missing=9
				9:leaf=-0.000939313613
				10:leaf=0.0227831863
			8:leaf=0.0387984589
		4:leaf=0.0401416048
	2:[f64<0.5] yes=5,no=6,missing=5
		5:leaf=-0.0189524274
		6:leaf=-0.0409291014
booster[235]
0:[f29<0.5] yes=1,no=2,missing=1
	1:[f74<0.5] yes=3,no=4,missing=3
		3:[f1<0.5] yes=5,no=6,missing=5
			5:[f4<0.5] yes=7,no=8,missing=7
				7:leaf=-0.0440420136
				8:leaf=-0.0051149684
			6:[f73<0.5] yes=9,no=10,missing=9
				9:leaf=-0.0147531796
				10:leaf=-0.00181745447
		4:leaf=0.0143327136
	2:leaf=0.0528589003
booster[236]
0:[f30<0.5] yes=1,no=2,missing=1
	1:[f74<0.5] yes=3,no=4,missing=3
		3:[f73<0.5] yes=5,no=6,missing=5
			5:[f34<0.5] yes=7,no=8,missing=7
				7:leaf=0.0137355449
				8:leaf=-0.0268994905
			6:leaf=-0.0273149442
		4:leaf=-0.0495204069
	2:leaf=-0.0391301289
booster[237]
0:[f62<0.5] yes=1,no=2,missing=1
	1:[f81<0.5] yes=3,no=4,missing=3
		3:[f1<0.5] yes=5,no=6,missing=5
			5:[f73<0.5] yes=7,no=8,missing=7
				7:leaf=-0.0391437374
				8:leaf=-0.012231797
			6:[f68<0.5] yes=9,no=10,missing=9
				9:leaf=-0.00173478003
				10:leaf=-0.0456639789
		4:leaf=0.0287568066
	2:leaf=0.0723954812
booster[238]
0:[f11<0.5] yes=1,no=2,missing=1
	1:[f0<0.5] yes=3,no=4,missing=3
		3:[f4<0.5] yes=5,no=6,missing=5
			5:leaf=-0.0210617874
			6:leaf=0.00144047488
		4:leaf=-0.0484030247
	2:leaf=0.0375047252
booster[239]
0:[f30<0.5] yes=1,no=2,missing=1
	1:[f35<0.5] yes=3,no=4,missing=3
		3:[f73<0.5] yes=5,no=6,missing=5
			5:leaf=-0.0128012542
			6:leaf=-0.0323841199
		4:leaf=-0.0439950712
	2:leaf=-0.0488024727
booster[240]
0:[f82<0.5] yes=1,no=2,missing=1
	1:[f34<0.5] yes=3,no=4,missing=3
		3:[f68<0.5] yes=5,no=6,missing=5
			5:[f92<0.5] yes=7,no=8,missing=7
				7:leaf=0.00655612489
				8:leaf=-0.0490924232
			6:leaf=-0.0468491428
		4:leaf=0.0501178205
	2:leaf=0.0877995715
booster[241]
0:[f61<0.5] yes=1,no=2,missing=1
	1:[f58<0.5] yes=3,no=4,missing=3
		3:leaf=-0.0502770543
		4:leaf=0.0543463044
	2:leaf=0.100000001
booster[242]
0:[f73<0.5] yes=1,no=2,missing=1
	1:[f79<0.5] yes=3,no=4,missing=3
		3:[f92<0.5] yes=7,no=8,missing=7
			7:[f38<0.5] yes=11,no=12,missing=11
				11:leaf=-0.00118953863
				12:leaf=0.0200086646
			8:leaf=0.0380239449
		4:leaf=0.0631395429
	2:[f29<0.5] yes=5,no=6,missing=5
		5:[f0<0.5] yes=9,no=10,missing=9
			9:leaf=-0.0158946197
			10:leaf=-0.00680809701
		6:leaf=-0.0441046432
booster[243]
0:[f29<0.5] yes=1,no=2,missing=1
	1:[f75<0.5] yes=3,no=4,missing=3
		3:[f1<0.5] yes=5,no=6,missing=5
			5:[f4<0.5] yes=7,no=8,missing=7
				7:leaf=-0.0336821675
				8:leaf=-0.00789181329
			6:[f73<0.5] yes=9,no=10,missing=9
				9:leaf=-0.0154246083
				10:leaf=-0.00134385796
		4:leaf=0.012714616
	2:leaf=0.0517652929
booster[244]
0:[f30<0.5] yes=1,no=2,missing=1
	1:[f5<0.5] yes=3,no=4,missing=3
		3:[f73<0.5] yes=5,no=6,missing=5
			5:[f7<0.5] yes=7,no=8,missing=7
				7:leaf=0.0129727069
				8:leaf=-0.0230820365
			6:leaf=-0.0242041256
		4:leaf=-0.0344074033
	2:leaf=-0.0384779498
booster[245]
0:[f62<0.5] yes=1,no=2,missing=1
	1:[f5<0.5] yes=3,no=4,missing=3
		3:[f29<0.5] yes=5,no=6,missing=5
			5:[f73<0.5] yes=7,no=8,missing=7
				7:leaf=-0.0177103579
				8:leaf=0.0125687914
			6:leaf=-0.0450269096
		4:leaf=-0.0460266992
	2:leaf=0.0704668239
booster[246]
0:[f10<0.5] yes=1,no=2,missing=1
	1:[f0<0.5] yes=3,no=4,missing=3
		3:[f4<0.5] yes=7,no=8,missing=7
			7:leaf=-0.0201046914
			8:leaf=0.00176154322
		4:leaf=-0.0481723957
	2:[f14<0.5] yes=5,no=6,missing=5
		5:leaf=0.0123785995
		6:leaf=0.0539199524
booster[247]
0:[f30<0.5] yes=1,no=2,missing=1
	1:[f4<0.5] yes=3,no=4,missing=3
		3:[f73<0.5] yes=5,no=6,missing=5
			5:leaf=-0.0121446503
			6:leaf=-0.0315100886
		4:leaf=-0.0435088351
	2:leaf=-0.0485782474
booster[248]
0:[f68<0.5] yes=1,no=2,missing=1
	1:[f7<0.5] yes=3,no=4,missing=3
		3:[f75<0.5] yes=5,no=6,missing=5
			5:[f74<0.5] yes=7,no=8,missing=7
				7:leaf=0.00580662815
				8:leaf=0.0784259588
			6:leaf=-0.0442389958
		4:leaf=0.0464808792
	2:leaf=-0.0464458689
booster[249]
0:[f61<0.5] yes=1,no=2,missing=1
	1:[f58<0.5] yes=3,no=4,missing=3
		3:leaf=-0.0501261018
		4:leaf=0.0533379614
	2:leaf=0.100000001
booster[250]
0:[f79<0.5] yes=1,no=2,missing=1
	1:[f29<0.5] yes=3,no=4,missing=3
		3:[f81<0.5] yes=5,no=6,missing=5
			5:[f92<0.5] yes=7,no=8,missing=7
				7:leaf=0.00357822771
				8:leaf=0.0428942256
			6:leaf=-0.0484231524
		4:leaf=-0.0446267836
	2:leaf=0.0614250377
booster[251]
0:[f73<0.5] yes=1,no=2,missing=1
	1:[f74<0.5] yes=3,no=4,missing=3
		3:[f1<0.5] yes=7,no=8,missing=7
			7:[f5<0.5] yes=11,no=12,missing=11
				11:leaf=-0.0407480076
				12:leaf=-0.0100685162
			8:leaf=-0.0177080259
		4:leaf=0.00205206499
	2:[f64<0.5] yes=5,no=6,missing=5
		5:[f69<0.5] yes=9,no=10,missing=9
			9:[f1<0.5] yes=13,no=14,missing=13
				13:leaf=-0.00770481629
				14:leaf=0.00880070403
			10:leaf=0.0537824892
		6:leaf=0.0545639284
booster[252]
0:[f30<0.5] yes=1,no=2,missing=1
	1:[f5<0.5] yes=3,no=4,missing=3
		3:[f73<0.5] yes=5,no=6,missing=5
			5:[f34<0.5] yes=7,no=8,missing=7
				7:leaf=0.0127616478
				8:leaf=-0.026242936
			6:leaf=-0.0231591687
		4:leaf=-0.0337464549
	2:leaf=-0.0378116108
booster[253]
0:[f62<0.5] yes=1,no=2,missing=1
	1:[f81<0.5] yes=3,no=4,missing=3
		3:[f0<0.5] yes=5,no=6,missing=5
			5:[f73<0.5] yes=7,no=8,missing=7
				7:leaf=-0.0379770324
				8:leaf=-0.012031028
			6:[f68<0.5] yes=9,no=10,missing=9
				9:leaf=-0.00140096911
				10:leaf=-0.0449204594
		4:leaf=0.029269686
	2:leaf=0.0687209815
booster[254]
0:[f38<0.5] yes=1,no=2,missing=1
	1:[f0<0.5] yes=3,no=4,missing=3
		3:[f73<0.5] yes=7,no=8,missing=7
			7:leaf=-0.0128667234
			8:leaf=-0.0323001817
		4:leaf=-0.0476394258
	2:[f14<0.5] yes=5,no=6,missing=5
		5:[f73<0.5] yes=9,no=10,missing=9
			9:[f4<0.5] yes=11,no=12,missing=11
				11:leaf=-0.00162963499
				12:leaf=-0.0134738078
			10:leaf=0.0536641069
		6:leaf=0.0530089997
booster[255]
0:[f30<0.5] yes=1,no=2,missing=1
	1:[f35<0.5] yes=3,no=4,missing=3
		3:[f73<0.5] yes=5,no=6,missing=5
			5:leaf=-0.0111976387
			6:leaf=-0.0305671934
		4:leaf=-0.0432033502
	2:leaf=-0.0483530276
booster[256]
0:[f76<0.5] yes=1,no=2,missing=1
	1:[f34<0.5] yes=3,no=4,missing=3
		3:[f68<0.5] yes=5,no=6,missing=5
			5:[f0<0.5] yes=7,no=8,missing=7
				7:leaf=-0.00491471821
				8:leaf=0.0163813662
			6:leaf=-0.0460029989
		4:leaf=0.0456554405
	2:leaf=0.075894855
booster[257]
0:[f61<0.5] yes=1,no=2,missing=1
	1:[f59<0.5] yes=3,no=4,missing=3
		3:leaf=-0.0499603935
		4:leaf=0.0475035347
	2:leaf=0.0997788906
booster[258]
0:[f73<0.5] yes=1,no=2,missing=1
	1:[f75<0.5] yes=3,no=4,missing=3
		3:[f74<0.5] yes=7,no=8,missing=7
			7:[f4<0.5] yes=11,no=12,missing=11
				11:leaf=0.00185388408
				12:leaf=0.0260816943
			8:leaf=-0.0428901799
		4:leaf=0.0358256511
	2:[f29<0.5] yes=5,no=6,missing=5
		5:[f1<0.5] yes=9,no=10,missing=9
			9:leaf=-0.0154769598
			10:leaf=-0.00642963964
		6:leaf=-0.0429326408
booster[259]
0:[f29<0.5] yes=1,no=2,missing=1
	1:[f74<0.5] yes=3,no=4,missing=3
		3:[f0<0.5] yes=5,no=6,missing=5
			5:[f5<0.5] yes=7,no=8,missing=7
				7:leaf=-0.0429324061
				8:leaf=-0.00388029404
			6:[f73<0.5] yes=9,no=10,missing=9
				9:leaf=-0.0130863385
				10:leaf=-0.0026528365
		4:leaf=0.0145149576
	2:leaf=0.0497201942
booster[260]
0:[f1<0.5] yes=1,no=2,missing=1
	1:[f5<0.5] yes=3,no=4,missing=3
		3:[f34<0.5] yes=5,no=6,missing=5
			5:[f85<0.5] yes=7,no=8,missing=7
				7:leaf=0.00578776887
				8:leaf=0.0348671488
			6:leaf=-0.0253172126
		4:leaf=-0.0331473686
	2:leaf=-0.0360344797
booster[261]
0:[f62<0.5] yes=1,no=2,missing=1
	1:[f81<0.5] yes=3,no=4,missing=3
		3:[f38<0.5] yes=5,no=6,missing=5
			5:[f74<0.5] yes=7,no=8,missing=7
				7:leaf=-0.010829187
				8:leaf=-0.0472540632
			6:leaf=-0.0462109596
		4:leaf=0.027752066
	2:leaf=0.0671740621
booster[262]
0:[f38<0.5] yes=1,no=2,missing=1
	1:[f0<0.5] yes=3,no=4,missing=3
		3:[f73<0.5] yes=7,no=8,missing=7
			7:leaf=-0.0120483339
			8:leaf=-0.0314149745
		4:leaf=-0.0473824441
	2:[f14<0.5] yes=5,no=6,missing=5
		5:[f73<0.5] yes=9,no=10,missing=9
			9:[f4<0.5] yes=11,no=12,missing=11
				11:leaf=-0.00196155324
				12:leaf=-0.0128888115
			10:leaf=0.0502178259
		6:leaf=0.052026432
booster[263]
0:[f30<0.5] yes=1,no=2,missing=1
	1:[f35<0.5] yes=3,no=4,missing=3
		3:[f73<0.5] yes=5,no=6,missing=5
			5:leaf=-0.0104423678
			6:leaf=-0.0296137221
		4:leaf=-0.0428383499
	2:leaf=-0.0481189527
booster[264]
0:[f82<0.5] yes=1,no=2,missing=1
	1:[f76<0.5] yes=3,no=4,missing=3
		3:[f92<0.5] yes=5,no=6,missing=5
			5:[f7<0.5] yes=7,no=8,missing=7
				7:leaf=0.00179432333
				8:leaf=0.0370950475
			6:leaf=-0.0484107062
		4:leaf=0.0767182633
	2:leaf=0.0848908946
booster[265]
0:[f61<0.5] yes=1,no=2,missing=1
	1:[f58<0.5] yes=3,no=4,missing=3
		3:leaf=-0.0498295166
		4:leaf=0.0514139943
	2:leaf=0.0968874693
booster[266]
0:[f79<0.5] yes=1,no=2,missing=1
	1:[f29<0.5] yes=3,no=4,missing=3
		3:[f81<0.5] yes=5,no=6,missing=5
			5:[f75<0.5] yes=7,no=8,missing=7
				7:leaf=0.00348060252
				8:leaf=0.0276004672
			6:leaf=-0.0477245748
		4:leaf=-0.0435716733
	2:leaf=0.0596969798
booster[267]
0:[f73<0.5] yes=1,no=2,missing=1
	1:[f74<0.5] yes=3,no=4,missing=3
		3:[f0<0.5] yes=7,no=8,missing=7
			7:[f4<0.5] yes=11,no=12,missing=11
				11:leaf=-0.0396605991
				12:leaf=-0.00938685518
			8:leaf=-0.0167402383
		4:leaf=0.00219453848
	2:[f33<0.5] yes=5,no=6,missing=5
		5:[f0<0.5] yes=9,no=10,missing=9
			9:leaf=-0.00557318889
			10:[f70<0.5] yes=13,no=14,missing=13
				13:leaf=0.0303507652
				14:leaf=0.0472817495
		6:leaf=0.0530467816
booster[268]
0:[f30<0.5] yes=1,no=2,missing=1
	1:[f4<0.5] yes=3,no=4,missing=3
		3:[f73<0.5] yes=5,no=6,missing=5
			5:[f85<0.5] yes=7,no=8,missing=7
				7:leaf=0.00767739816
				8:leaf=0.0253083743
			6:leaf=-0.0220201723
		4:leaf=-0.0324773788
	2:leaf=-0.0364747308
booster[269]
0:[f62<0.5] yes=1,no=2,missing=1
	1:[f81<0.5] yes=3,no=4,missing=3
		3:[f38<0.5] yes=5,no=6,missing=5
			5:[f74<0.5] yes=7,no=8,missing=7
				7:leaf=-0.0102888541
				8:leaf=-0.0466428362
			6:leaf=-0.0458617471
		4:leaf=0.0265966002
	2:leaf=0.0656961724
booster[270]
0:[f38<0.5] yes=1,no=2,missing=1
	1:[f0<0.5] yes=3,no=4,missing=3
		3:[f73<0.5] yes=7,no=8,missing=7
			7:leaf=-0.0112744588
			8:leaf=-0.0306018386
		4:leaf=-0.0471220054
	2:[f14<0.5] yes=5,no=6,missing=5
		5:[f73<0.5] yes=9,no=10,missing=9
			9:[f5<0.5] yes=11,no=12,missing=11
				11:leaf=-0.00228538481
				12:leaf=-0.012130959
			10:leaf=0.0465791337
		6:leaf=0.0510926805
booster[271]
0:[f30<0.5] yes=1,no=2,missing=1
	1:[f35<0.5] yes=3,no=4,missing=3
		3:[f73<0.5] yes=5,no=6,missing=5
			5:leaf=-0.00972451922
			6:leaf=-0.0287356824
		4:leaf=-0.0424490385
	2:leaf=-0.0478803962
booster[272]
0:[f82<0.5] yes=1,no=2,missing=1
	1:[f76<0.5] yes=3,no=4,missing=3
		3:[f68<0.5] yes=5,no=6,missing=5
			5:[f75<0.5] yes=7,no=8,missing=7
				7:leaf=0.0067077144
				8:leaf=-0.0437370688
			6:leaf=-0.0454356112
		4:leaf=0.075092189
	2:leaf=0.0828376859
booster[273]
0:[f61<0.5] yes=1,no=2,missing=1
	1:[f58<0.5] yes=3,no=4,missing=3
		3:leaf=-0.0496807061
		4:leaf=0.050515648
	2:leaf=0.0942134112
booster[274]
0:[f79<0.5] yes=1,no=2,missing=1
	1:[f92<0.5] yes=3,no=4,missing=3
		3:[f73<0.5] yes=5,no=6,missing=5
			5:[f38<0.5] yes=7,no=8,missing=7
				7:leaf=-0.00189071859
				8:leaf=0.016893914
			6:[f29<0.5] yes=9,no=10,missing=9
				9:leaf=-0.0169410948
				10:leaf=-0.0414939001
		4:leaf=0.0355861522
	2:leaf=0.0582199208
booster[275]
0:[f68<0.5] yes=1,no=2,missing=1
	1:[f74<0.5] yes=3,no=4,missing=3
		3:[f73<0.5] yes=7,no=8,missing=7
			7:[f0<0.5] yes=11,no=12,missing=11
				11:leaf=-0.0263991933
				12:leaf=-0.0162200406
			8:[f0<0.5] yes=13,no=14,missing=13
				13:leaf=-0.0084541291
				14:leaf=-0.000512774568
		4:leaf=0.0145698925
	2:[f64<0.5] yes=5,no=6,missing=5
		5:[f3<0.5] yes=9,no=10,missing=9
			9:leaf=0.0128746321
			10:leaf=0.0487577729
		6:leaf=0.0527066067
booster[276]
0:[f30<0.5] yes=1,no=2,missing=1
	1:[f4<0.5] yes=3,no=4,missing=3
		3:[f73<0.5] yes=5,no=6,missing=5
			5:[f85<0.5] yes=7,no=8,missing=7
				7:leaf=0.00728410343
				8:leaf=0.0242883973
			6:leaf=-0.0210196078
		4:leaf=-0.031932611
	2:leaf=-0.0357848294
booster[277]
0:[f62<0.5] yes=1,no=2,missing=1
	1:[f35<0.5] yes=3,no=4,missing=3
		3:[f29<0.5] yes=5,no=6,missing=5
			5:[f74<0.5] yes=7,no=8,missing=7
				7:leaf=-0.00238348567
				8:leaf=-0.0460242108
			6:leaf=-0.0434671342
		4:leaf=-0.044904884
	2:leaf=0.0643261299
booster[278]
0:[f38<0.5] yes=1,no=2,missing=1
	1:[f0<0.5] yes=3,no=4,missing=3
		3:leaf=-0.0163711421
		4:leaf=-0.0468634255
	2:[f4<0.5] yes=5,no=6,missing=5
		5:leaf=0.0310759898
		6:leaf=-0.00131563947
booster[279]
0:[f30<0.5] yes=1,no=2,missing=1
	1:[f35<0.5] yes=3,no=4,missing=3
		3:leaf=-0.0152154183
		4:leaf=-0.0421037041
	2:leaf=-0.0476465933
booster[280]
0:[f82<0.5] yes=1,no=2,missing=1
	1:[f76<0.5] yes=3,no=4,missing=3
		3:[f34<0.5] yes=5,no=6,missing=5
			5:[f68<0.5] yes=7,no=8,missing=7
				7:leaf=0.000982847647
				8:leaf=-0.0449889265
			6:leaf=0.0421291105
		4:leaf=0.073611483
	2:leaf=0.080972366
booster[281]
0:[f61<0.5] yes=1,no=2,missing=1
	1:[f59<0.5] yes=3,no=4,missing=3
		3:leaf=-0.0495108142
		4:leaf=0.044755511
	2:leaf=0.0916509181
booster[282]
0:[f79<0.5] yes=1,no=2,missing=1
	1:[f81<0.5] yes=3,no=4,missing=3
		3:[f92<0.5] yes=5,no=6,missing=5
			5:[f73<0.5] yes=7,no=8,missing=7
				7:leaf=0.0040414515
				8:leaf=-0.0227017701
			6:leaf=0.0365677215
		4:leaf=-0.0472482108
	2:leaf=0.0569027066
booster[283]
0:[f29<0.5] yes=1,no=2,missing=1
	1:[f74<0.5] yes=3,no=4,missing=3
		3:[f0<0.5] yes=5,no=6,missing=5
			5:[f4<0.5] yes=7,no=8,missing=7
				7:leaf=-0.0419286862
				8:leaf=-0.00234082085
			6:leaf=-0.00951944105
		4:leaf=0.0136125386
	2:leaf=0.0472004674
booster[284]
0:[f30<0.5] yes=1,no=2,missing=1
	1:[f5<0.5] yes=3,no=4,missing=3
		3:[f73<0.5] yes=5,no=6,missing=5
			5:[f34<0.5] yes=7,no=8,missing=7
				7:leaf=0.0103440015
				8:leaf=-0.02251276
			6:leaf=-0.0200039875
		4:leaf=-0.0312827192
	2:leaf=-0.0350979678
booster[285]
0:[f38<0.5] yes=1,no=2,missing=1
	1:[f29<0.5] yes=3,no=4,missing=3
		3:[f73<0.5] yes=5,no=6,missing=5
			5:[f81<0.5] yes=7,no=8,missing=7
				7:leaf=-0.00883452594
				8:leaf=0.0435030013
			6:[f0<0.5] yes=9,no=10,missing=9
				9:leaf=0.00949003547
				10:leaf=0.0344505981
		4:leaf=-0.0428898893
	2:leaf=-0.0453672782
booster[286]
0:[f0<0.5] yes=1,no=2,missing=1
	1:[f14<0.5] yes=3,no=4,missing=3
		3:[f38<0.5] yes=5,no=6,missing=5
			5:[f73<0.5] yes=7,no=8,missing=7
				7:leaf=-0.00955430046
				8:leaf=-0.0290954504
			6:[f73<0.5] yes=9,no=10,missing=9
				9:leaf=-0.00812336709
				10:leaf=0.0488914289
		4:leaf=0.0497241132
	2:leaf=-0.0470588468
booster[287]
0:[f30<0.5] yes=1,no=2,missing=1
	1:[f35<0.5] yes=3,no=4,missing=3
		3:leaf=-0.0143275131
		4:leaf=-0.0417154916
	2:leaf=-0.0474113934
booster[288]
0:[f82<0.5] yes=1,no=2,missing=1
	1:[f76<0.5] yes=3,no=4,missing=3
		3:[f34<0.5] yes=5,no=6,missing=5
			5:[f68<0.5] yes=7,no=8,missing=7
				7:leaf=0.000940538303
				8:leaf=-0.0445210151
			6:leaf=0.0409426168
		4:leaf=0.0721176192
	2:leaf=0.0792843029
booster[289]
0:[f61<0.5] yes=1,no=2,missing=1
	1:[f58<0.5] yes=3,no=4,missing=3
		3:leaf=-0.0493800156
		4:leaf=0.0489033237
	2:leaf=0.0892188698
booster[290]
0:[f29<0.5] yes=1,no=2,missing=1
	1:[f92<0.5] yes=3,no=4,missing=3
		3:[f75<0.5] yes=5,no=6,missing=5
			5:[f38<0.5] yes=7,no=8,missing=7
				7:leaf=-0.00329736853
				8:leaf=0.0128371762
			6:leaf=0.0254528429
		4:leaf=0.0330558531
	2:leaf=-0.0421317443
booster[291]
0:[f29<0.5] yes=1,no=2,missing=1
	1:[f74<0.5] yes=3,no=4,missing=3
		3:[f0<0.5] yes=5,no=6,missing=5
			5:[f4<0.5] yes=7,no=8,missing=7
				7:leaf=-0.0414307006
				8:leaf=-0.00228546723
			6:[f73<0.5] yes=9,no=10,missing=9
				9:leaf=-0.010958191
				10:leaf=-0.00374332885
		4:leaf=0.0132468836
	2:leaf=0.0462184437
booster[292]
0:[f30<0.5] yes=1,no=2,missing=1
	1:[f4<0.5] yes=3,no=4,missing=3
		3:[f73<0.5] yes=5,no=6,missing=5
			5:[f85<0.5] yes=7,no=8,missing=7
				7:leaf=0.00648439815
				8:leaf=0.0231389198
			6:leaf=-0.0191414803
		4:leaf=-0.0306774173
	2:leaf=-0.0343696885
booster[293]
0:[f35<0.5] yes=1,no=2,missing=1
	1:[f29<0.5] yes=3,no=4,missing=3
		3:[f73<0.5] yes=5,no=6,missing=5
			5:[f81<0.5] yes=7,no=8,missing=7
				7:leaf=-0.00899711624
				8:leaf=0.0404478908
			6:[f0<0.5] yes=9,no=10,missing=9
				9:leaf=0.00762259215
				10:leaf=0.0319659859
		4:leaf=-0.0422741324
	2:leaf=-0.0442011468
booster[294]
0:[f0<0.5] yes=1,no=2,missing=1
	1:[f14<0.5] yes=3,no=4,missing=3
		3:[f38<0.5] yes=5,no=6,missing=5
			5:[f73<0.5] yes=7,no=8,missing=7
				7:leaf=-0.0087839989
				8:leaf=-0.0282851793
			6:[f73<0.5] yes=9,no=10,missing=9
				9:leaf=-0.0078122518
				10:leaf=0.0454735011
		4:leaf=0.0488836877
	2:leaf=-0.0468020551
booster[295]
0:[f30<0.5] yes=1,no=2,missing=1
	1:[f35<0.5] yes=3,no=4,missing=3
		3:[f73<0.5] yes=5,no=6,missing=5
			5:leaf=-0.00715276599
			6:leaf=-0.0265263803
		4:leaf=-0.0413387269
	2:leaf=-0.0471624136
booster[296]
0:[f82<0.5] yes=1,no=2,missing=1
	1:[f76<0.5] yes=3,no=4,missing=3
		3:[f68<0.5] yes=5,no=6,missing=5
			5:[f85<0.5] yes=7,no=8,missing=7
				7:leaf=0.00601690402
				8:leaf=-0.0268664546
			6:leaf=-0.044031363
		4:leaf=0.0706759021
	2:leaf=0.0775472745
booster[297]
0:[f43<0.5] yes=1,no=2,missing=1
	1:[f30<0.5] yes=3,no=4,missing=3
		3:leaf=-0.0220386311
		4:leaf=-0.0465760194
	2:leaf=0.0486514941
booster[298]
0:[f79<0.5] yes=1,no=2,missing=1
	1:[f29<0.5] yes=3,no=4,missing=3
		3:[f38<0.5] yes=5,no=6,missing=5
			5:[f0<0.5] yes=7,no=8,missing=7
				7:leaf=-0.0107841706
				8:leaf=0.0100317551
			6:[f0<0.5] yes=9,no=10,missing=9
				9:leaf=0.0191970542
				10:leaf=-0.0479874425
		4:leaf=-0.0414669178
	2:leaf=0.0555223934
booster[299]
0:[f29<0.5] yes=1,no=2,missing=1
	1:[f75<0.5] yes=3,no=4,missing=3
		3:[f0<0.5] yes=7,no=8,missing=7
			7:[f5<0.5] yes=9,no=10,missing=9
				9:leaf=-0.0283586476
				10:leaf=-0.00532970345
			8:[f73<0.5] yes=11,no=12,missing=11
				11:leaf=-0.0118257953
				12:leaf=-0.00242699962
		4:leaf=0.00971349608
	2:[f64<0.5] yes=5,no=6,missing=5
		5:leaf=0.0337676369
		6:leaf=0.0509718023
booster[300]
0:[f30<0.5] yes=1,no=2,missing=1
	1:[f4<0.5] yes=3,no=4,missing=3
		3:[f73<0.5] yes=5,no=6,missing=5
			5:leaf=0.007804689
			6:leaf=-0.0182662383
		4:leaf=-0.0299912747
	2:leaf=-0.0336586684
booster[301]
0:[f62<0.5] yes=1,no=2,missing=1
	1:[f38<0.5] yes=3,no=4,missing=3
		3:[f74<0.5] yes=5,no=6,missing=5
			5:[f29<0.5] yes=7,no=8,missing=7
				7:leaf=-0.0019393221
				8:leaf=-0.0416423753
			6:leaf=-0.0456635728
		4:leaf=-0.0447023362
	2:leaf=0.0629434511
booster[302]
0:[f0<0.5] yes=1,no=2,missing=1
	1:[f14<0.5] yes=3,no=4,missing=3
		3:[f38<0.5] yes=5,no=6,missing=5
			5:[f73<0.5] yes=7,no=8,missing=7
				7:leaf=-0.00810121279
				8:leaf=-0.0274570975
			6:[f73<0.5] yes=9,no=10,missing=9
				9:leaf=-0.00728716096
				10:leaf=0.0427114852
		4:leaf=0.0481597669
	2:leaf=-0.0465477966
booster[303]
0:[f30<0.5] yes=1,no=2,missing=1
	1:[f73<0.5] yes=3,no=4,missing=3
		3:leaf=-0.0147719132
		4:leaf=-0.0283615142
	2:leaf=-0.0469138063
booster[304]
0:[f82<0.5] yes=1,no=2,missing=1
	1:[f34<0.5] yes=3,no=4,missing=3
		3:[f92<0.5] yes=5,no=6,missing=5
			5:[f68<0.5] yes=7,no=8,missing=7
				7:leaf=0.00452256668
				8:leaf=-0.0432107411
			6:leaf=-0.0473683551
		4:leaf=0.0423754714
	2:leaf=0.0758468211
booster[305]
0:[f61<0.5] yes=1,no=2,missing=1
	1:[f59<0.5] yes=3,no=4,missing=3
		3:leaf=-0.0491126142
		4:leaf=0.0422988012
	2:leaf=0.0875734612
booster[306]
0:[f73<0.5] yes=1,no=2,missing=1
	1:[f75<0.5] yes=3,no=4,missing=3
		3:[f74<0.5] yes=5,no=6,missing=5
			5:[f38<0.5] yes=7,no=8,missing=7
				7:leaf=0.000132220215
				8:leaf=0.018281199
			6:leaf=-0.0403316207
		4:leaf=0.0305285044
	2:leaf=-0.0177542996
booster[307]
0:[f29<0.5] yes=1,no=2,missing=1
	1:[f74<0.5] yes=3,no=4,missing=3
		3:[f0<0.5] yes=7,no=8,missing=7
			7:[f5<0.5] yes=11,no=12,missing=11
				11:leaf=-0.0406026803
				12:leaf=-0.00143607939
			8:[f73<0.5] yes=13,no=14,missing=13
				13:leaf=-0.010094394
				14:leaf=-0.00320858741
		4:leaf=0.0134186847
	2:[f8<0.5] yes=5,no=6,missing=5
		5:leaf=0.0483135805
		6:leaf=0.028957421
booster[308]
0:[f30<0.5] yes=1,no=2,missing=1
	1:[f85<0.5] yes=3,no=4,missing=3
		3:[f4<0.5] yes=5,no=6,missing=5
			5:[f73<0.5] yes=7,no=8,missing=7
				7:leaf=0.00554637332
				8:leaf=-0.017217828
			6:leaf=-0.0441318229
		4:leaf=0.0312602483
	2:leaf=-0.0329017378
booster[309]
0:[f5<0.5] yes=1,no=2,missing=1
	1:[f29<0.5] yes=3,no=4,missing=3
		3:[f73<0.5] yes=5,no=6,missing=5
			5:[f1<0.5] yes=7,no=8,missing=7
				7:leaf=-0.00976726227
				8:leaf=0.00240991451
			6:[f1<0.5] yes=9,no=10,missing=9
				9:leaf=0.00645884592
				10:leaf=0.0299342722
		4:leaf=-0.0410010628
	2:leaf=-0.0432950817
booster[310]
0:[f0<0.5] yes=1,no=2,missing=1
	1:[f14<0.5] yes=3,no=4,missing=3
		3:[f38<0.5] yes=5,no=6,missing=5
			5:[f73<0.5] yes=7,no=8,missing=7
				7:leaf=-0.007625042
				8:leaf=-0.0265900381
			6:[f73<0.5] yes=9,no=10,missing=9
				9:leaf=-0.00662199035
				10:leaf=0.0403002948
		4:leaf=0.0474950373
	2:leaf=-0.0462775938
booster[311]
0:[f30<0.5] yes=1,no=2,missing=1
	1:leaf=-0.0184182581
	2:leaf=-0.0466504879
booster[312]
0:[f82<0.5] yes=1,no=2,missing=1
	1:[f34<0.5] yes=3,no=4,missing=3
		3:[f68<0.5] yes=5,no=6,missing=5
			5:[f85<0.5] yes=7,no=8,missing=7
				7:leaf=0.00455099298
				8:leaf=-0.0376018509
			6:leaf=-0.0430496745
		4:leaf=0.04143719
	2:leaf=0.0737927184
booster[313]
0:[f61<0.5] yes=1,no=2,missing=1
	1:[f59<0.5] yes=3,no=4,missing=3
		3:leaf=-0.0489537492
		4:leaf=0.0413123928
	2:leaf=0.0852548704
booster[314]
0:[f92<0.5] yes=1,no=2,missing=1
	1:[f73<0.5] yes=3,no=4,missing=3
		3:[f75<0.5] yes=5,no=6,missing=5
			5:[f38<0.5] yes=9,no=10,missing=9
				9:leaf=-0.00283700251
				10:leaf=0.013213235
			6:leaf=0.029149998
		4:[f68<0.5] yes=7,no=8,missing=7
			7:leaf=-0.0151421176
			8:leaf=-0.0291064288
	2:leaf=0.0298691075
booster[315]
0:[f29<0.5] yes=1,no=2,missing=1
	1:[f74<0.5] yes=3,no=4,missing=3
		3:[f31<0.5] yes=7,no=8,missing=7
			7:[f5<0.5] yes=11,no=12,missing=11
				11:leaf=-0.040095862
				12:leaf=-0.00114486506
			8:[f73<0.5] yes=13,no=14,missing=13
				13:leaf=-0.00975487381
				14:leaf=-0.00284493552
		4:leaf=0.0133350492
	2:[f64<0.5] yes=5,no=6,missing=5
		5:[f70<0.5] yes=9,no=10,missing=9
			9:leaf=0.00851649698
			10:leaf=0.0451673828
		6:leaf=0.0499097593
booster[316]
0:[f30<0.5] yes=1,no=2,missing=1
	1:[f85<0.5] yes=3,no=4,missing=3
		3:[f4<0.5] yes=5,no=6,missing=5
			5:[f73<0.5] yes=7,no=8,missing=7
				7:leaf=0.00518298754
				8:leaf=-0.0164274145
			6:leaf=-0.0437313057
		4:leaf=0.0298625026
	2:leaf=-0.0321676247
booster[317]
0:[f38<0.5] yes=1,no=2,missing=1
	1:[f81<0.5] yes=3,no=4,missing=3
		3:[f68<0.5] yes=5,no=6,missing=5
			5:[f73<0.5] yes=7,no=8,missing=7
				7:leaf=-0.00784076005
				8:leaf=0.0198783576
			6:leaf=-0.0236487016
		4:leaf=0.0304075535
	2:leaf=-0.0439874083
booster[318]
0:[f0<0.5] yes=1,no=2,missing=1
	1:[f11<0.5] yes=3,no=4,missing=3
		3:[f4<0.5] yes=5,no=6,missing=5
			5:[f73<0.5] yes=7,no=8,missing=7
				7:leaf=-0.00702717016
				8:leaf=-0.0257986989
			6:leaf=0.00226371619
		4:leaf=0.0269970428
	2:leaf=-0.0460090153
booster[319]
0:[f0<0.5] yes=1,no=2,missing=1
	1:[f38<0.5] yes=3,no=4,missing=3
		3:[f73<0.5] yes=5,no=6,missing=5
			5:leaf=-0.00483750133
			6:leaf=-0.0239872057
		4:leaf=-0.0416081734
	2:leaf=-0.0461335555
booster[320]
0:[f82<0.5] yes=1,no=2,missing=1
	1:[f76<0.5] yes=3,no=4,missing=3
		3:[f34<0.5] yes=5,no=6,missing=5
			5:[f92<0.5] yes=7,no=8,missing=7
				7:leaf=0.000438527204
				8:leaf=-0.046643652
			6:leaf=0.0376282893
		4:leaf=0.0688617527
	2:leaf=0.0721434951
booster[321]
0:[f61<0.5] yes=1,no=2,missing=1
	1:[f59<0.5] yes=3,no=4,missing=3
		3:leaf=-0.048794549
		4:leaf=0.0404184721
	2:leaf=0.0830070078
booster[322]
0:[f75<0.5] yes=1,no=2,missing=1
	1:[f74<0.5] yes=3,no=4,missing=3
		3:[f4<0.5] yes=5,no=6,missing=5
			5:[f30<0.5] yes=7,no=8,missing=7
				7:leaf=-0.0106215123
				8:leaf=0.00821842626
			6:[f0<0.5] yes=9,no=10,missing=9
				9:leaf=0.0237462651
				10:leaf=-0.0470637195
		4:leaf=-0.0398290306
	2:leaf=0.0199883971
booster[323]
0:[f29<0.5] yes=1,no=2,missing=1
	1:[f75<0.5] yes=3,no=4,missing=3
		3:[f0<0.5] yes=7,no=8,missing=7
			7:[f4<0.5] yes=9,no=10,missing=9
				9:leaf=-0.0257902201
				10:leaf=-0.00439009536
			8:leaf=-0.0082829427
		4:leaf=0.00933278818
	2:[f64<0.5] yes=5,no=6,missing=5
		5:leaf=0.0294628982
		6:leaf=0.0494222753
booster[324]
0:[f30<0.5] yes=1,no=2,missing=1
	1:[f85<0.5] yes=3,no=4,missing=3
		3:[f5<0.5] yes=5,no=6,missing=5
			5:[f73<0.5] yes=7,no=8,missing=7
				7:leaf=0.00494289678
				8:leaf=-0.0156445559
			6:leaf=-0.0433400497
		4:leaf=0.0281134043
	2:leaf=-0.031452056
booster[325]
0:[f38<0.5] yes=1,no=2,missing=1
	1:[f81<0.5] yes=3,no=4,missing=3
		3:[f73<0.5] yes=5,no=6,missing=5
			5:[f0<0.5] yes=7,no=8,missing=7
				7:leaf=-0.0168602858
				8:leaf=0.000396504445
			6:[f0<0.5] yes=9,no=10,missing=9
				9:leaf=0.00273892866
				10:leaf=0.0117058484
		4:leaf=0.0290591326
	2:leaf=-0.0436273105
booster[326]
0:[f0<0.5] yes=1,no=2,missing=1
	1:[f10<0.5] yes=3,no=4,missing=3
		3:[f4<0.5] yes=5,no=6,missing=5
			5:[f73<0.5] yes=7,no=8,missing=7
				7:leaf=-0.00643474096
				8:leaf=-0.0249899123
			6:leaf=0.00225896086
		4:leaf=0.0259444546
	2:leaf=-0.0457425602
booster[327]
0:[f30<0.5] yes=1,no=2,missing=1
	1:[f73<0.5] yes=3,no=4,missing=3
		3:leaf=-0.0125519456
		4:leaf=-0.0261100512
	2:leaf=-0.0461305045
booster[328]
0:[f82<0.5] yes=1,no=2,missing=1
	1:[f76<0.5] yes=3,no=4,missing=3
		3:[f92<0.5] yes=5,no=6,missing=5
			5:[f68<0.5] yes=7,no=8,missing=7
				7:leaf=0.00497679552
				8:leaf=-0.0420854725
			6:leaf=-0.0460172929
		4:leaf=0.067107141
	2:leaf=0.0702450797
booster[329]
0:[f61<0.5] yes=1,no=2,missing=1
	1:[f57<0.5] yes=3,no=4,missing=3
		3:leaf=-0.0486110672
		4:leaf=0.0369256809
	2:leaf=0.0807400048
booster[330]
0:[f73<0.5] yes=1,no=2,missing=1
	1:[f75<0.5] yes=3,no=4,missing=3
		3:[f74<0.5] yes=5,no=6,missing=5
			5:[f38<0.5] yes=7,no=8,missing=7
				7:leaf=-5.01664581e-05
				8:leaf=0.0154608656
			6:leaf=-0.0375282578
		4:leaf=0.0269411504
	2:leaf=-0.015918633
booster[331]
0:[f73<0.5] yes=1,no=2,missing=1
	1:[f74<0.5] yes=3,no=4,missing=3
		3:[f0<0.5] yes=7,no=8,missing=7
			7:[f4<0.5] yes=11,no=12,missing=11
				11:leaf=-0.0355730951
				12:leaf=-0.00603417493
			8:leaf=-0.0143908812
		4:leaf=0.00272768992
	2:[f64<0.5] yes=5,no=6,missing=5
		5:[f69<0.5] yes=9,no=10,missing=9
			9:[f0<0.5] yes=13,no=14,missing=13
				13:leaf=-0.00293491036
				14:leaf=0.0042966851
			10:leaf=0.0482050739
		6:leaf=0.0490163565
booster[332]
0:[f74<0.5] yes=1,no=2,missing=1
	1:[f30<0.5] yes=3,no=4,missing=3
		3:[f85<0.5] yes=5,no=6,missing=5
			5:[f4<0.5] yes=7,no=8,missing=7
				7:leaf=0.00544882985
				8:leaf=-0.0426380895
			6:leaf=0.0299334228
		4:leaf=-0.0292993467
	2:leaf=-0.0494357981
booster[333]
0:[f38<0.5] yes=1,no=2,missing=1
	1:[f81<0.5] yes=3,no=4,missing=3
		3:[f68<0.5] yes=5,no=6,missing=5
			5:[f73<0.5] yes=7,no=8,missing=7
				7:leaf=-0.00703975512
				8:leaf=0.0180233568
			6:leaf=-0.0231800079
		4:leaf=0.027759267
	2:leaf=-0.043247804
booster[334]
0:[f0<0.5] yes=1,no=2,missing=1
	1:[f14<0.5] yes=3,no=4,missing=3
		3:[f4<0.5] yes=5,no=6,missing=5
			5:[f11<0.5] yes=7,no=8,missing=7
				7:leaf=-0.0110149039
				8:leaf=0.00465508737
			6:leaf=0.00249551865
		4:leaf=0.0460356735
	2:leaf=-0.0454616137
booster[335]
0:[f30<0.5] yes=1,no=2,missing=1
	1:[f73<0.5] yes=3,no=4,missing=3
		3:leaf=-0.0118845878
		4:leaf=-0.0252990723
	2:leaf=-0.0458530448
booster[336]
0:[f82<0.5] yes=1,no=2,missing=1
	1:[f34<0.5] yes=3,no=4,missing=3
		3:[f92<0.5] yes=5,no=6,missing=5
			5:[f85<0.5] yes=7,no=8,missing=7
				7:leaf=0.00406231638
				8:leaf=-0.0367507972
			6:leaf=-0.0454586409
		4:leaf=0.0391062163
	2:leaf=0.0683646277
booster[337]
0:[f61<0.5] yes=1,no=2,missing=1
	1:[f57<0.5] yes=3,no=4,missing=3
		3:leaf=-0.0484431833
		4:leaf=0.0360468738
	2:leaf=0.0786576569
booster[338]
0:[f92<0.5] yes=1,no=2,missing=1
	1:[f73<0.5] yes=3,no=4,missing=3
		3:[f75<0.5] yes=5,no=6,missing=5
			5:[f38<0.5] yes=9,no=10,missing=9
				9:leaf=-0.00282517052
				10:leaf=0.0113724498
			6:leaf=0.0254255086
		4:[f68<0.5] yes=7,no=8,missing=7
			7:leaf=-0.0136820748
			8:leaf=-0.0273762401
	2:leaf=0.0275450088
booster[339]
0:[f29<0.5] yes=1,no=2,missing=1
	1:[f74<0.5] yes=3,no=4,missing=3
		3:[f0<0.5] yes=7,no=8,missing=7
			7:[f4<0.5] yes=11,no=12,missing=11
				11:leaf=-0.0389799513
				12:leaf=-0.000127566105
			8:leaf=-0.00704189762
		4:leaf=0.0141317202
	2:[f64<0.5] yes=5,no=6,missing=5
		5:[f70<0.5] yes=9,no=10,missing=9
			9:leaf=0.00467612408
			10:leaf=0.0432710871
		6:leaf=0.0485750251
booster[340]
0:[f74<0.5] yes=1,no=2,missing=1
	1:[f30<0.5] yes=3,no=4,missing=3
		3:[f85<0.5] yes=5,no=6,missing=5
			5:[f5<0.5] yes=7,no=8,missing=7
				7:leaf=0.00516570918
				8:leaf=-0.0422357656
			6:leaf=0.0286143273
		4:leaf=-0.0285425019
	2:leaf=-0.0487977229
booster[341]
0:[f62<0.5] yes=1,no=2,missing=1
	1:[f81<0.5] yes=3,no=4,missing=3
		3:[f0<0.5] yes=5,no=6,missing=5
			5:[f73<0.5] yes=7,no=8,missing=7
				7:leaf=-0.0336245932
				8:leaf=-0.00985044707
			6:[f73<0.5] yes=9,no=10,missing=9
				9:leaf=-0.00969567243
				10:leaf=0.00390069
		4:leaf=0.0213064197
	2:leaf=0.0617883094
booster[342]
0:[f0<0.5] yes=1,no=2,missing=1
	1:[f10<0.5] yes=3,no=4,missing=3
		3:[f4<0.5] yes=5,no=6,missing=5
			5:[f73<0.5] yes=7,no=8,missing=7
				7:leaf=-0.00528168073
				8:leaf=-0.023630891
			6:leaf=0.00248650345
		4:leaf=0.0241586547
	2:leaf=-0.0451770425
booster[343]
0:[f30<0.5] yes=1,no=2,missing=1
	1:[f73<0.5] yes=3,no=4,missing=3
		3:leaf=-0.0112519525
		4:leaf=-0.024467824
	2:leaf=-0.0455749631
booster[344]
0:[f82<0.5] yes=1,no=2,missing=1
	1:[f34<0.5] yes=3,no=4,missing=3
		3:[f68<0.5] yes=5,no=6,missing=5
			5:[f85<0.5] yes=7,no=8,missing=7
				7:leaf=0.00379841775
				8:leaf=-0.0357787721
			6:leaf=-0.041814968
		4:leaf=0.0381406546
	2:leaf=0.066841051
booster[345]
0:[f61<0.5] yes=1,no=2,missing=1
	1:[f73<0.5] yes=3,no=4,missing=3
		3:leaf=-0.0474713482
		4:leaf=-0.00604578992
	2:leaf=0.0765862763
booster[346]
0:[f92<0.5] yes=1,no=2,missing=1
	1:[f75<0.5] yes=3,no=4,missing=3
		3:[f74<0.5] yes=5,no=6,missing=5
			5:[f38<0.5] yes=7,no=8,missing=7
				7:leaf=-0.00380371115
				8:leaf=0.0117451763
			6:leaf=-0.0321310535
		4:leaf=0.0186855551
	2:leaf=0.0258220434
booster[347]
0:[f73<0.5] yes=1,no=2,missing=1
	1:[f74<0.5] yes=3,no=4,missing=3
		3:[f4<0.5] yes=7,no=8,missing=7
			7:[f0<0.5] yes=11,no=12,missing=11
				11:leaf=-0.0342538282
				12:leaf=-0.0100809373
			8:leaf=-0.0120370351
		4:leaf=0.00311797485
	2:[f64<0.5] yes=5,no=6,missing=5
		5:[f69<0.5] yes=9,no=10,missing=9
			9:[f0<0.5] yes=13,no=14,missing=13
				13:leaf=-0.00249315705
				14:leaf=0.00415231427
			10:leaf=0.0470275767
		6:leaf=0.0481709167
booster[348]
0:[f0<0.5] yes=1,no=2,missing=1
	1:[f38<0.5] yes=3,no=4,missing=3
		3:[f73<0.5] yes=5,no=6,missing=5
			5:[f81<0.5] yes=7,no=8,missing=7
				7:leaf=0.00404104637
				8:leaf=0.0154146301
			6:leaf=-0.0145915719
		4:leaf=-0.0273129772
	2:leaf=-0.0277451482
booster[349]
0:[f38<0.5] yes=1,no=2,missing=1
	1:[f81<0.5] yes=3,no=4,missing=3
		3:[f68<0.5] yes=5,no=6,missing=5
			5:[f73<0.5] yes=7,no=8,missing=7
				7:leaf=-0.00637859944
				8:leaf=0.0166358687
			6:leaf=-0.0222834814
		4:leaf=0.0254514124
	2:leaf=-0.0426679663
booster[350]
0:[f0<0.5] yes=1,no=2,missing=1
	1:[f10<0.5] yes=3,no=4,missing=3
		3:[f4<0.5] yes=5,no=6,missing=5
			5:leaf=-0.00970682874
			6:leaf=0.00254581845
		4:leaf=0.0232342854
	2:leaf=-0.0448925495
booster[351]
0:[f0<0.5] yes=1,no=2,missing=1
	1:[f73<0.5] yes=3,no=4,missing=3
		3:leaf=-0.011682569
		4:leaf=-0.023987731
	2:leaf=-0.0450014398
booster[352]
0:[f76<0.5] yes=1,no=2,missing=1
	1:[f34<0.5] yes=3,no=4,missing=3
		3:[f85<0.5] yes=5,no=6,missing=5
			5:[f0<0.5] yes=7,no=8,missing=7
				7:leaf=-0.00501143327
				8:leaf=0.0111692771
			6:leaf=-0.0352077298
		4:leaf=0.0350269862
	2:leaf=0.0639854595
booster[353]
0:[f61<0.5] yes=1,no=2,missing=1
	1:[f73<0.5] yes=3,no=4,missing=3
		3:leaf=-0.0472724065
		4:leaf=-0.00536344759
	2:leaf=0.0746137351
booster[354]
0:[f92<0.5] yes=1,no=2,missing=1
	1:[f73<0.5] yes=3,no=4,missing=3
		3:[f75<0.5] yes=5,no=6,missing=5
			5:[f4<0.5] yes=9,no=10,missing=9
				9:leaf=-0.00187902804
				10:leaf=0.00974476617
			6:leaf=0.0233651213
		4:[f1<0.5] yes=7,no=8,missing=7
			7:leaf=-0.0216362532
			8:leaf=-0.0110275587
	2:leaf=0.0246834327
booster[355]
0:[f29<0.5] yes=1,no=2,missing=1
	1:[f74<0.5] yes=3,no=4,missing=3
		3:[f0<0.5] yes=7,no=8,missing=7
			7:[f4<0.5] yes=11,no=12,missing=11
				11:leaf=-0.0381685309
				12:leaf=0.000682744838
			8:[f73<0.5] yes=13,no=14,missing=13
				13:leaf=-0.00815789495
				14:leaf=-0.00252687931
		4:leaf=0.0143196452
	2:[f64<0.5] yes=5,no=6,missing=5
		5:[f70<0.5] yes=9,no=10,missing=9
			9:leaf=0.00299871503
			10:leaf=0.0419760309
		6:leaf=0.0477602892
booster[356]
0:[f30<0.5] yes=1,no=2,missing=1
	1:[f85<0.5] yes=3,no=4,missing=3
		3:[f5<0.5] yes=5,no=6,missing=5
			5:[f73<0.5] yes=7,no=8,missing=7
				7:leaf=0.00366546842
				8:leaf=-0.0136797642
			6:leaf=-0.0418275744
		4:leaf=0.0236280393
	2:leaf=-0.0285137184
booster[357]
0:[f62<0.5] yes=1,no=2,missing=1
	1:[f74<0.5] yes=3,no=4,missing=3
		3:[f38<0.5] yes=5,no=6,missing=5
			5:[f0<0.5] yes=7,no=8,missing=7
				7:leaf=-0.0132953664
				8:leaf=0.00375203835
			6:leaf=-0.0419178344
		4:leaf=-0.0456099212
	2:leaf=0.0606351756
booster[358]
0:[f1<0.5] yes=1,no=2,missing=1
	1:[f10<0.5] yes=3,no=4,missing=3
		3:[f4<0.5] yes=5,no=6,missing=5
			5:[f73<0.5] yes=7,no=8,missing=7
				7:leaf=-0.00419729063
				8:leaf=-0.0223785788
			6:leaf=0.0026048685
		4:leaf=0.0224170666
	2:leaf=-0.0445980355
booster[359]
0:[f0<0.5] yes=1,no=2,missing=1
	1:[f73<0.5] yes=3,no=4,missing=3
		3:leaf=-0.0110407835
		4:leaf=-0.0231878757
	2:leaf=-0.044704821
booster[360]
0:[f76<0.5] yes=1,no=2,missing=1
	1:[f34<0.5] yes=3,no=4,missing=3
		3:[f5<0.5] yes=5,no=6,missing=5
			5:[f73<0.5] yes=7,no=8,missing=7
				7:leaf=-0.00072127732
				8:leaf=-0.016191192
			6:[f1<0.5] yes=9,no=10,missing=9
				9:leaf=-0.00447974959
				10:leaf=0.0573412254
		4:leaf=0.034071479
	2:leaf=0.0627733693
booster[361]
0:[f61<0.5] yes=1,no=2,missing=1
	1:[f73<0.5] yes=3,no=4,missing=3
		3:leaf=-0.0470645055
		4:leaf=-0.00517494977
	2:leaf=0.0726777315
booster[362]
0:[f75<0.5] yes=1,no=2,missing=1
	1:[f74<0.5] yes=3,no=4,missing=3
		3:[f38<0.5] yes=5,no=6,missing=5
			5:[f1<0.5] yes=7,no=8,missing=7
				7:leaf=-0.00910557993
				8:leaf=0.00714612892
			6:[f1<0.5] yes=9,no=10,missing=9
				9:leaf=0.0179988015
				10:leaf=-0.0469480008
		4:leaf=-0.0363299586
	2:leaf=0.0151266111
booster[363]
0:[f29<0.5] yes=1,no=2,missing=1
	1:[f74<0.5] yes=3,no=4,missing=3
		3:[f0<0.5] yes=7,no=8,missing=7
			7:[f4<0.5] yes=9,no=10,missing=9
				9:leaf=-0.0376573168
				10:leaf=0.000680646044
			8:leaf=-0.00629656902
		4:leaf=0.0140702873
	2:[f3<0.5] yes=5,no=6,missing=5
		5:leaf=0.0448164903
		6:leaf=0.0190023389
